{"learner":{"attributes":{"best_iteration":"109","best_ntree_limit":"110","best_score":"0.09927247324854852","scikit_learn":"{\"use_label_encoder\": false, \"n_estimators\": 500, \"objective\": \"multi:softprob\", \"max_depth\": 5, \"max_leaves\": null, \"max_bin\": null, \"grow_policy\": null, \"learning_rate\": 0.1, \"verbosity\": null, \"booster\": null, \"tree_method\": null, \"gamma\": null, \"min_child_weight\": null, \"max_delta_step\": null, \"subsample\": null, \"sampling_method\": null, \"colsample_bytree\": null, \"colsample_bylevel\": null, \"colsample_bynode\": null, \"reg_alpha\": null, \"reg_lambda\": null, \"scale_pos_weight\": null, \"base_score\": null, \"missing\": NaN, \"num_parallel_tree\": null, \"random_state\": null, \"n_jobs\": null, \"monotone_constraints\": null, \"interaction_constraints\": null, \"importance_type\": null, \"gpu_id\": null, \"validate_parameters\": null, \"predictor\": null, \"enable_categorical\": false, \"max_cat_to_onehot\": null, \"eval_metric\": null, \"early_stopping_rounds\": 20, \"callbacks\": null, \"kwargs\": {\"seed\": 23580, \"num_class\": 8}, \"classes_\": [0.0, 1.0, 2.0, 3.0, 4.0, 5.0, 6.0, 7.0], \"n_classes_\": 8, \"evals_result_\": {\"validation_0\": {\"mlogloss\": [1.7411893194215364, 1.5062369470038999, 1.3251558019991463, 1.1792209875352673, 1.0576174887539285, 0.9536808977638938, 0.8640513966948167, 0.785868295248658, 0.7170906886973638, 0.6558444126915928, 0.6010606517287312, 0.5523770477781266, 0.5085621916124824, 0.4692720377005548, 0.4334676561288897, 0.40123335671502103, 0.37158251601909525, 0.3450128803562653, 0.3208904359611527, 0.29894671221643465, 0.2789821166311437, 0.2607247434409339, 0.24417309612119303, 0.2288317159704832, 0.21468103887215856, 0.20183226587376737, 0.1899816631374014, 0.17910759356057382, 0.16916672582817882, 0.1601040555348382, 0.15164557642713453, 0.14385150622410067, 0.13663224171879365, 0.1297482460280938, 0.12345396455289842, 0.11777344204679908, 0.11235030017652531, 0.10739206739592073, 0.10270071760818904, 0.09828063766862824, 0.09420991023074882, 0.090350407291359, 0.0868085966298186, 0.08337742985608526, 0.08018447505858492, 0.07718641579761089, 0.07427301574275608, 0.07163025938807892, 0.06920248880555584, 0.06686066888907763, 0.06464853080660411, 0.06238853557517032, 0.060362184039599, 0.05830940644329705, 0.05648265440804005, 0.05465657511852744, 0.05286156928591357, 0.05131338471185288, 0.04986546240836562, 0.04838401301924152, 0.04698327378592733, 0.04554025331186238, 0.04429288984584861, 0.04303162874127147, 0.04190673932723416, 0.04082691356871094, 0.0397579857214608, 0.03875393613998403, 0.03784391506944131, 0.0368517573939438, 0.03591267597306252, 0.03516137863204999, 0.03433407931686068, 0.033541362367715, 0.03268560743404762, 0.03192124720338195, 0.03126417099628821, 0.03055810581270261, 0.02974489963523283, 0.02917622116270724, 0.02856411046075762, 0.02803496386472223, 0.02743014762041043, 0.02669146400336007, 0.02609104836427158, 0.02546023822004751, 0.02489018606303237, 0.02430340262375136, 0.02386977519486295, 0.02332798685250942, 0.02280554887896539, 0.02237925379070456, 0.02192892373386792, 0.02145397645469391, 0.02103817813268452, 0.02068831925740077, 0.02020106985509898, 0.01983925384070511, 0.01947316925937169, 0.01903616251820772, 0.01868390986842444, 0.01836439084611852, 0.01806076232369993, 0.01777064952567541, 0.0173863983191236, 0.01703884256500082, 0.01675337874601401, 0.01647119887975641, 0.01612447734913913, 0.01588832960255302, 0.01559196932948099, 0.01530686439152108, 0.01498179241024992, 0.01472170242814284, 0.01441779259869273, 0.01417384060751711, 0.0139216151025915, 0.01363477063190183, 0.01343331059896188, 0.01318009549137932, 0.01298864063551608, 0.01278777258967325, 0.01254330076806989, 0.01235521063737439, 0.01212669457089677, 0.0119571656162406, 0.01175488705017948, 0.01155614491723582, 0.01135869296017786, 0.01115590361696982]}, \"validation_1\": {\"mlogloss\": [1.744729088026312, 1.512204177310114, 1.3328166771095429, 1.1889137048357805, 1.0696091416371243, 0.967816278672539, 0.8797823735617202, 0.8033547049613812, 0.7359659139885496, 0.6765836280490786, 0.622986983374229, 0.5752395878090719, 0.5330075638310257, 0.49483069373219535, 0.4601283373620211, 0.4291434276164113, 0.40057409953977496, 0.37525891385671806, 0.3518640031378232, 0.330403836602721, 0.31151866604628314, 0.29379608073676916, 0.27794297407026247, 0.2631179648514152, 0.24980130696026065, 0.23756411517531748, 0.2264184419967802, 0.21630781138056865, 0.20699572834633123, 0.19892612015285566, 0.19130172818531638, 0.18444070787139805, 0.17811141569259256, 0.17221861675949643, 0.16715451040526544, 0.16261285358430158, 0.1576943708387425, 0.15323021921492078, 0.1491517876963979, 0.14556296558574577, 0.1421419596487464, 0.13896042952886176, 0.13597537116711383, 0.13358214058529067, 0.13101607873501264, 0.1288986807979326, 0.12691041540496487, 0.12501362977902333, 0.1236748965535388, 0.12177057569165768, 0.12023093886078323, 0.11869685296929805, 0.11749741261733086, 0.1161737014730607, 0.11506383318241034, 0.11402048802889692, 0.11314757190584185, 0.11229163465495201, 0.11150200511725628, 0.11064010800484718, 0.10986593393128649, 0.10943201218244636, 0.10863563944162767, 0.10778019623504638, 0.10722618377253292, 0.10635978643700998, 0.10609530217239775, 0.10554463608671218, 0.10506487171888151, 0.10484747600993831, 0.10422706167315939, 0.10401144483007413, 0.10353341075419992, 0.10321516162164315, 0.10288765259486969, 0.10262029149022471, 0.10254135451526507, 0.10237447347215559, 0.10224566825934646, 0.10185663048455945, 0.10146824218070571, 0.10137562116566522, 0.10113909121813809, 0.10089810419043463, 0.10055430259779664, 0.10053616424077196, 0.10036202185950269, 0.10026308698900725, 0.10009654798977455, 0.09993024409285041, 0.0999343421910143, 0.09969160498480817, 0.09975259612908421, 0.09972805061062141, 0.09974277534039815, 0.0997434798983896, 0.09972616949388766, 0.09977026414085047, 0.09978450382098471, 0.0998479727948123, 0.09984854276205823, 0.09979373880277932, 0.09976403168135392, 0.09959534155442094, 0.09962976922965548, 0.09965490497387336, 0.09962579560626605, 0.0994739324157508, 0.09940715237794413, 0.09927247324854852, 0.0994665871657011, 0.09929892868338014, 0.09955818462558332, 0.09956551407122531, 0.09963478334919379, 0.09961065863878213, 0.099589412514111, 0.09953401434232534, 0.0995552500078808, 0.09964075203656383, 0.09973590064136069, 0.09987393080526563, 0.09987692845582473, 0.09994674145008964, 0.10000779934971066, 0.1000930858691582, 0.1000914843256959, 0.10030382249197367, 0.10038427046193919, 0.10053404186587389]}}, \"_estimator_type\": \"classifier\"}"},"feature_names":[],"feature_types":[],"gradient_booster":{"model":{"gbtree_model_param":{"num_parallel_tree":"1","num_trees":"1040","size_leaf_vector":"0"},"tree_info":[0,1,2,3,4,5,6,7,0,1,2,3,4,5,6,7,0,1,2,3,4,5,6,7,0,1,2,3,4,5,6,7,0,1,2,3,4,5,6,7,0,1,2,3,4,5,6,7,0,1,2,3,4,5,6,7,0,1,2,3,4,5,6,7,0,1,2,3,4,5,6,7,0,1,2,3,4,5,6,7,0,1,2,3,4,5,6,7,0,1,2,3,4,5,6,7,0,1,2,3,4,5,6,7,0,1,2,3,4,5,6,7,0,1,2,3,4,5,6,7,0,1,2,3,4,5,6,7,0,1,2,3,4,5,6,7,0,1,2,3,4,5,6,7,0,1,2,3,4,5,6,7,0,1,2,3,4,5,6,7,0,1,2,3,4,5,6,7,0,1,2,3,4,5,6,7,0,1,2,3,4,5,6,7,0,1,2,3,4,5,6,7,0,1,2,3,4,5,6,7,0,1,2,3,4,5,6,7,0,1,2,3,4,5,6,7,0,1,2,3,4,5,6,7,0,1,2,3,4,5,6,7,0,1,2,3,4,5,6,7,0,1,2,3,4,5,6,7,0,1,2,3,4,5,6,7,0,1,2,3,4,5,6,7,0,1,2,3,4,5,6,7,0,1,2,3,4,5,6,7,0,1,2,3,4,5,6,7,0,1,2,3,4,5,6,7,0,1,2,3,4,5,6,7,0,1,2,3,4,5,6,7,0,1,2,3,4,5,6,7,0,1,2,3,4,5,6,7,0,1,2,3,4,5,6,7,0,1,2,3,4,5,6,7,0,1,2,3,4,5,6,7,0,1,2,3,4,5,6,7,0,1,2,3,4,5,6,7,0,1,2,3,4,5,6,7,0,1,2,3,4,5,6,7,0,1,2,3,4,5,6,7,0,1,2,3,4,5,6,7,0,1,2,3,4,5,6,7,0,1,2,3,4,5,6,7,0,1,2,3,4,5,6,7,0,1,2,3,4,5,6,7,0,1,2,3,4,5,6,7,0,1,2,3,4,5,6,7,0,1,2,3,4,5,6,7,0,1,2,3,4,5,6,7,0,1,2,3,4,5,6,7,0,1,2,3,4,5,6,7,0,1,2,3,4,5,6,7,0,1,2,3,4,5,6,7,0,1,2,3,4,5,6,7,0,1,2,3,4,5,6,7,0,1,2,3,4,5,6,7,0,1,2,3,4,5,6,7,0,1,2,3,4,5,6,7,0,1,2,3,4,5,6,7,0,1,2,3,4,5,6,7,0,1,2,3,4,5,6,7,0,1,2,3,4,5,6,7,0,1,2,3,4,5,6,7,0,1,2,3,4,5,6,7,0,1,2,3,4,5,6,7,0,1,2,3,4,5,6,7,0,1,2,3,4,5,6,7,0,1,2,3,4,5,6,7,0,1,2,3,4,5,6,7,0,1,2,3,4,5,6,7,0,1,2,3,4,5,6,7,0,1,2,3,4,5,6,7,0,1,2,3,4,5,6,7,0,1,2,3,4,5,6,7,0,1,2,3,4,5,6,7,0,1,2,3,4,5,6,7,0,1,2,3,4,5,6,7,0,1,2,3,4,5,6,7,0,1,2,3,4,5,6,7,0,1,2,3,4,5,6,7,0,1,2,3,4,5,6,7,0,1,2,3,4,5,6,7,0,1,2,3,4,5,6,7,0,1,2,3,4,5,6,7,0,1,2,3,4,5,6,7,0,1,2,3,4,5,6,7,0,1,2,3,4,5,6,7,0,1,2,3,4,5,6,7,0,1,2,3,4,5,6,7,0,1,2,3,4,5,6,7,0,1,2,3,4,5,6,7,0,1,2,3,4,5,6,7,0,1,2,3,4,5,6,7,0,1,2,3,4,5,6,7,0,1,2,3,4,5,6,7,0,1,2,3,4,5,6,7,0,1,2,3,4,5,6,7,0,1,2,3,4,5,6,7,0,1,2,3,4,5,6,7,0,1,2,3,4,5,6,7,0,1,2,3,4,5,6,7,0,1,2,3,4,5,6,7,0,1,2,3,4,5,6,7,0,1,2,3,4,5,6,7,0,1,2,3,4,5,6,7,0,1,2,3,4,5,6,7,0,1,2,3,4,5,6,7,0,1,2,3,4,5,6,7,0,1,2,3,4,5,6,7,0,1,2,3,4,5,6,7,0,1,2,3,4,5,6,7,0,1,2,3,4,5,6,7,0,1,2,3,4,5,6,7,0,1,2,3,4,5,6,7,0,1,2,3,4,5,6,7,0,1,2,3,4,5,6,7,0,1,2,3,4,5,6,7,0,1,2,3,4,5,6,7,0,1,2,3,4,5,6,7,0,1,2,3,4,5,6,7,0,1,2,3,4,5,6,7],"trees":[{"base_weights":[2.900106E0,3.433101E0,4.4338167E-1,4.7457626E-1,3.612266E0,2.5395865E0,-7.261912E-2,1.7809576E0,-2.0312057E-1,2.272789E0,3.7904193E0,3.4129539E0,7.20422E-1,2.111723E0,-2.5879195E-1,2.808023E0,3.690773E-1,-3.2458523E-1,1.4876033E0,3.4864595E0,5.8745116E-1,3.4582134E-2,3.805873E0,3.7323296E0,6.1538464E-1,2.0895522E0,-1.9927096E-1,3.0091743E0,1.3921113E-1,-4.1750842E-1,4.4573504E-1,3.2474804E0,2.1505377E-1,-4.5454547E-2,2.523077E0,6.366366E-1,-4.2733908E-1,2.448485E0,-4.0366971E-1,3.7389693E0,1.1096774E0,2.0502665E0,-4.4299673E-2,1.6421052E0,-5.070422E-1,3.858097E0,3.1368015E0,3.7956576E0,1.0810811E-1,-3.6363637E-1,2.745098E0,3.2592592E-1,3.4630873E0,1.6296296E0,-3.8242894E-1,3.28801E0,-3.7894738E-1,-3.52E-1,2.1818182E0,-4.502078E-1,1.8547486E0,1.5609756E0,-1.708264E-1],"categories":[],"categories_nodes":[],"categories_segments":[],"categories_sizes":[],"default_left":[1,1,1,1,1,1,1,1,1,1,1,1,1,1,1,1,1,1,1,1,1,1,1,1,1,1,1,1,1,1,1,0,0,0,0,0,0,0,0,0,0,0,0,0,0,0,0,0,0,0,0,0,0,0,0,0,0,0,0,0,0,0,0],"id":0,"left_children":[1,3,5,7,9,11,13,15,17,19,21,23,25,27,29,31,33,35,37,39,41,43,45,47,49,51,53,55,57,59,61,-1,-1,-1,-1,-1,-1,-1,-1,-1,-1,-1,-1,-1,-1,-1,-1,-1,-1,-1,-1,-1,-1,-1,-1,-1,-1,-1,-1,-1,-1,-1,-1],"loss_changes":[4.597371E3,1.5279844E3,6.7867896E2,1.4727129E2,6.406875E2,1.94453E2,2.0564554E2,8.130173E1,2.3104893E1,6.5639307E2,1.3916797E2,7.2280396E1,5.2632988E1,6.989253E1,5.22523E1,3.6584656E1,2.2493027E1,1.0503938E1,1.473163E1,1.080437E2,1.25744286E2,1.0273985E1,7.141797E1,1.673877E1,2.13273E1,3.9446526E1,9.238426E0,2.6989868E1,1.4281888E1,2.910904E1,5.946595E1,0E0,0E0,0E0,0E0,0E0,0E0,0E0,0E0,0E0,0E0,0E0,0E0,0E0,0E0,0E0,0E0,0E0,0E0,0E0,0E0,0E0,0E0,0E0,0E0,0E0,0E0,0E0,0E0,0E0,0E0,0E0,0E0],"parents":[2147483647,0,0,1,1,2,2,3,3,4,4,5,5,6,6,7,7,8,8,9,9,10,10,11,11,12,12,13,13,14,14,15,15,16,16,17,17,18,18,19,19,20,20,21,21,22,22,23,23,24,24,25,25,26,26,27,27,28,28,29,29,30,30],"right_children":[2,4,6,8,10,12,14,16,18,20,22,24,26,28,30,32,34,36,38,40,42,44,46,48,50,52,54,56,58,60,62,-1,-1,-1,-1,-1,-1,-1,-1,-1,-1,-1,-1,-1,-1,-1,-1,-1,-1,-1,-1,-1,-1,-1,-1,-1,-1,-1,-1,-1,-1,-1,-1],"split_conditions":[1.4125226E0,-3.1547728E0,-1.1701946E0,2.661251E0,-2.24303E0,2.4829526E0,5.4840136E-1,6.8174976E-1,1.3697979E-1,-1.6583518E0,-4.417673E0,8.5560036E-1,1.9309814E0,-7.35237E-2,-2.0750615E-1,2.1330404E0,-1.2081757E-1,-2.1725078E0,3.4069843E0,3.8114724E0,-1.3874335E0,-1.6908448E0,1.4613679E-1,2.6613674E-1,-2.2148632E-1,-5.203404E-1,3.2888955E-1,2.1063852E0,2.1353774E0,1.4699097E0,1.9219935E0,3.2474804E-1,2.1505376E-2,-4.545455E-3,2.523077E-1,6.366366E-2,-4.2733908E-2,2.4484849E-1,-4.0366974E-2,3.7389693E-1,1.1096775E-1,2.0502666E-1,-4.4299676E-3,1.6421053E-1,-5.0704222E-2,3.8580972E-1,3.1368014E-1,3.7956578E-1,1.0810811E-2,-3.636364E-2,2.7450982E-1,3.259259E-2,3.4630874E-1,1.6296296E-1,-3.8242895E-2,3.28801E-1,-3.7894737E-2,-3.52E-2,2.1818183E-1,-4.502078E-2,1.8547486E-1,1.5609756E-1,-1.708264E-2],"split_indices":[13,33,8,28,23,3,42,8,23,26,10,6,13,39,5,9,19,6,42,3,39,43,15,15,29,5,42,6,14,40,13,0,0,0,0,0,0,0,0,0,0,0,0,0,0,0,0,0,0,0,0,0,0,0,0,0,0,0,0,0,0,0,0],"split_type":[0,0,0,0,0,0,0,0,0,0,0,0,0,0,0,0,0,0,0,0,0,0,0,0,0,0,0,0,0,0,0,0,0,0,0,0,0,0,0,0,0,0,0,0,0,0,0,0,0,0,0,0,0,0,0,0,0,0,0,0,0,0,0],"sum_hessian":[3.5111562E3,2.884875E3,6.2628125E2,1.649375E2,2.7199375E3,1.229375E2,5.0334375E2,5.578125E1,1.0915625E2,3.2090625E2,2.3990312E3,8.246875E1,4.046875E1,3.871875E1,4.64625E2,3.171875E1,2.40625E1,1.0259375E2,6.5625E0,1.859375E2,1.3496875E2,9.84375E0,2.3891875E3,7.371875E1,8.75E0,1.575E1,2.471875E1,2.625E1,1.246875E1,3.7953125E2,8.509375E1,2.690625E1,4.8125E0,2.1E1,3.0625E0,9.40625E0,9.31875E1,4.15625E0,2.40625E0,1.675625E2,1.8375E1,4.003125E1,9.49375E1,1.96875E0,7.875E0,2.2117812E3,1.7740625E2,7.240625E1,1.3125E0,6.5625E0,2.1875E0,7.4375E0,8.3125E0,1.53125E0,2.31875E1,2.428125E1,1.96875E0,1.071875E1,1.75E0,3.749375E2,4.59375E0,2.975E1,5.534375E1],"tree_param":{"num_deleted":"0","num_feature":"50","num_nodes":"63","size_leaf_vector":"0"}},{"base_weights":[-5.3880715E-1,1.9227739E-1,-5.555363E-1,1.6774193E0,-2.830769E-1,-5.564033E-1,8.3950615E-1,-3.6363637E-1,2.7512195E0,-5.385621E-1,6.017699E-1,-1.6620499E-1,-5.5752707E-1,1.7910448E-1,-4.830918E-1,-0E0,3.1864407E0,1.7910448E-1,-5.591973E-1,2.1075268E0,-4.0268457E-1,-4.1717792E-1,1.1343284E0,-5.641726E-1,-4.895427E-1,3.3981192E0,6.567164E-1,1.7910448E-1,2.5165563E0,1.7910448E-1,-5.0190115E-1,1.7910448E-1,-5.0859106E-1,-5.644916E-1,1.7910448E-1,-4.9889535E-1,1.1343284E0],"categories":[],"categories_nodes":[],"categories_segments":[],"categories_sizes":[],"default_left":[1,1,1,1,1,1,0,1,1,1,1,1,1,0,0,0,1,0,0,1,1,1,0,1,1,0,0,0,0,0,0,0,0,0,0,0,0],"id":1,"left_children":[1,3,5,7,9,11,-1,13,15,17,19,21,23,-1,-1,-1,25,-1,-1,27,29,31,-1,33,35,-1,-1,-1,-1,-1,-1,-1,-1,-1,-1,-1,-1],"loss_changes":[4.306201E1,5.6466972E1,4.620117E0,4.3464355E1,1.4099941E1,1.4123535E0,0E0,5.76826E-1,1.5341553E1,8.082199E-1,2.2212227E1,4.155401E0,1.2698975E0,0E0,0E0,0E0,3.6922302E0,0E0,0E0,4.1340656E0,6.274394E-1,6.4639175E-1,0E0,8.386841E-1,5.3087006E0,0E0,0E0,0E0,0E0,0E0,0E0,0E0,0E0,0E0,0E0,0E0,0E0],"parents":[2147483647,0,0,1,1,2,2,3,3,4,4,5,5,7,7,8,8,9,9,10,10,11,11,12,12,16,16,19,19,20,20,21,21,23,23,24,24],"right_children":[2,4,6,8,10,12,-1,14,16,18,20,22,24,-1,-1,-1,26,-1,-1,28,30,32,-1,34,36,-1,-1,-1,-1,-1,-1,-1,-1,-1,-1,-1,-1],"split_conditions":[-3.1700733E0,-2.5668886E0,4.0584073E0,-8.02687E-1,-2.9179013E0,-5.7576537E0,8.395062E-2,-2.8582404E0,1.6559968E0,-1.2958574E0,-1.8520577E0,2.7752495E0,1.028899E0,1.7910449E-2,-4.830918E-2,-0E0,1.6526852E0,1.7910449E-2,-5.5919733E-2,-2.7001665E0,-2.7266402E0,-1.1148188E0,1.1343284E-1,2.4579105E0,1.6412729E0,3.3981192E-1,6.5671645E-2,1.7910449E-2,2.5165564E-1,1.7910449E-2,-5.0190117E-2,1.7910449E-2,-5.0859105E-2,-5.6449164E-2,1.7910449E-2,-4.9889535E-2,1.1343284E-1],"split_indices":[45,40,23,15,1,39,0,0,7,36,26,29,31,0,0,0,6,0,0,2,1,20,0,26,49,0,0,0,0,0,0,0,0,0,0,0,0],"split_type":[0,0,0,0,0,0,0,0,0,0,0,0,0,0,0,0,0,0,0,0,0,0,0,0,0,0,0,0,0,0,0,0,0,0,0,0,0],"sum_hessian":[3.5111562E3,7.83125E1,3.4328438E3,1.8375E1,5.99375E1,3.4313125E3,1.53125E0,6.5625E0,1.18125E1,4.68125E1,1.3125E1,1.028125E1,3.4210312E3,1.09375E0,5.46875E0,1.75E0,1.00625E1,1.09375E0,4.571875E1,4.8125E0,8.3125E0,9.1875E0,1.09375E0,3.10975E3,3.1128125E2,8.96875E0,1.09375E0,1.09375E0,3.71875E0,1.09375E0,7.21875E0,1.09375E0,8.09375E0,3.1086562E3,1.09375E0,3.101875E2,1.09375E0],"tree_param":{"num_deleted":"0","num_feature":"50","num_nodes":"37","size_leaf_vector":"0"}},{"base_weights":[-1.1855253E-1,-3.891038E-1,1.9229307E0,-4.679936E-1,1.9265746E-1,1.9109497E-2,3.1674209E0,-5.9816692E-2,-5.1056087E-1,-3.5037196E-1,1.4571909E0,-3.9950186E-1,1.3632E0,1.0810811E-1,3.6464088E0,-2.747431E-1,1.6551725E0,-5.5214226E-1,-3.343425E-1,3.364486E-1,-5.2539825E-1,-4.1379312E-1,2.2933333E0,1.6166884E-1,-5.2682924E-1,2.6363637E0,-2.6297578E-1,-3.8742137E-1,1.2334294E0,3.7847753E0,8.695652E-1,-4.3017435E-1,2.8134558E-1,1.6557734E-1,2.9141717E0,-5.535955E-1,-0E0,-4.469946E-1,1.3989304E0,-1.6099072E-1,1.7345133E0,-5.436106E-1,-4.33213E-2,-4.9488372E-1,7.2727275E-1,-2.8387097E-1,3.101219E0,-3.783784E-1,1.6811594E0,4.4444445E-1,-5.45961E-1,-4.379562E-1,3.1986644E0,-4.7509578E-1,1.0909091E0,2.7906978E-1,-5.4351145E-1,-4.6927375E-1,2.56E0,3.845891E0,2.919708E-2,-4.8E-1,2.08E0],"categories":[],"categories_nodes":[],"categories_segments":[],"categories_sizes":[],"default_left":[1,1,1,1,1,1,1,1,1,1,1,1,1,1,1,1,1,1,1,1,1,1,1,1,1,1,1,1,1,1,1,0,0,0,0,0,0,0,0,0,0,0,0,0,0,0,0,0,0,0,0,0,0,0,0,0,0,0,0,0,0,0,0],"id":2,"left_children":[1,3,5,7,9,11,13,15,17,19,21,23,25,27,29,31,33,35,37,39,41,43,45,47,49,51,53,55,57,59,61,-1,-1,-1,-1,-1,-1,-1,-1,-1,-1,-1,-1,-1,-1,-1,-1,-1,-1,-1,-1,-1,-1,-1,-1,-1,-1,-1,-1,-1,-1,-1,-1],"loss_changes":[1.9406031E3,1.4245657E2,9.740867E2,4.743573E1,2.5535423E2,9.255572E1,3.6393457E2,9.59673E1,1.7941528E1,3.1484394E1,1.7567392E2,9.050215E0,8.156782E1,1.9820644E1,7.929248E1,2.0097982E1,5.3904053E1,1.6047363E0,9.333571E1,3.748594E1,1.8020859E0,3.6302638E0,1.6191666E2,2.030479E1,2.1473198E0,3.9432114E1,5.7055845E0,2.7362392E0,2.5694723E1,4.6811035E1,1.978435E1,0E0,0E0,0E0,0E0,0E0,0E0,0E0,0E0,0E0,0E0,0E0,0E0,0E0,0E0,0E0,0E0,0E0,0E0,0E0,0E0,0E0,0E0,0E0,0E0,0E0,0E0,0E0,0E0,0E0,0E0,0E0,0E0],"parents":[2147483647,0,0,1,1,2,2,3,3,4,4,5,5,6,6,7,7,8,8,9,9,10,10,11,11,12,12,13,13,14,14,15,15,16,16,17,17,18,18,19,19,20,20,21,21,22,22,23,23,24,24,25,25,26,26,27,27,28,28,29,29,30,30],"right_children":[2,4,6,8,10,12,14,16,18,20,22,24,26,28,30,32,34,36,38,40,42,44,46,48,50,52,54,56,58,60,62,-1,-1,-1,-1,-1,-1,-1,-1,-1,-1,-1,-1,-1,-1,-1,-1,-1,-1,-1,-1,-1,-1,-1,-1,-1,-1,-1,-1,-1,-1,-1,-1],"split_conditions":[2.732097E0,2.0633273E0,1.0311125E-1,1.089374E0,-3.6587113E-1,2.4985038E-1,-1.5928296E0,-7.373887E-2,-5.7389498E-2,1.6509638E0,-2.2406187E0,1.6834261E0,-7.3707426E-1,2.6976848E0,-7.352812E-1,-1.2118966E-1,-3.3919448E-1,2.9862864E0,1.4131196E0,7.2595614E-1,-4.5380503E-1,1.114289E0,-9.3132055E-1,-8.993243E-1,-5.368825E0,-2.5786853E0,1.68513E0,9.906396E-1,-2.3947756E0,1.116906E0,7.7324456E-1,-4.3017436E-2,2.8134558E-2,1.6557734E-2,2.9141718E-1,-5.535955E-2,-0E0,-4.469946E-2,1.3989304E-1,-1.6099071E-2,1.7345133E-1,-5.4361057E-2,-4.3321303E-3,-4.9488373E-2,7.272728E-2,-2.8387098E-2,3.101219E-1,-3.783784E-2,1.6811594E-1,4.4444446E-2,-5.4596104E-2,-4.3795623E-2,3.1986645E-1,-4.7509577E-2,1.0909092E-1,2.7906979E-2,-5.4351147E-2,-4.6927374E-2,2.56E-1,3.845891E-1,2.9197081E-3,-4.8E-2,2.0799999E-1],"split_indices":[30,30,44,28,0,10,39,41,10,28,26,28,34,3,23,0,16,44,13,13,0,16,44,41,26,40,9,28,26,20,9,0,0,0,0,0,0,0,0,0,0,0,0,0,0,0,0,0,0,0,0,0,0,0,0,0,0,0,0,0,0,0,0],"split_type":[0,0,0,0,0,0,0,0,0,0,0,0,0,0,0,0,0,0,0,0,0,0,0,0,0,0,0,0,0,0,0,0,0,0,0,0,0,0,0,0,0,0,0,0,0,0,0,0,0,0,0,0,0,0,0,0,0,0,0,0,0,0,0],"sum_hessian":[3.5111562E3,3.101E3,4.1015625E2,2.730875E3,3.70125E2,1.6253125E2,2.47625E2,2.58125E2,2.47275E3,2.594375E2,1.106875E2,1.2446875E2,3.80625E1,3.36875E1,2.139375E2,2.30125E2,2.8E1,1.9989375E3,4.738125E2,5.25E1,2.069375E2,3.434375E1,7.634375E1,2.296875E1,1.015E2,2.1E1,1.70625E1,2.384375E1,9.84375E0,2.034375E2,1.05E1,1.8003125E2,5.009375E1,1.334375E1,1.465625E1,1.9936875E3,5.25E0,4.4559375E2,2.821875E1,3.9375E1,1.3125E1,1.9928125E2,7.65625E0,3.259375E1,1.75E0,1.8375E1,5.796875E1,1.75E1,5.46875E0,1.53125E0,9.996875E1,3.28125E0,1.771875E1,1.53125E1,1.75E0,4.375E0,1.946875E1,4.59375E0,5.25E0,2.0015625E2,3.28125E0,5.25E0,5.25E0],"tree_param":{"num_deleted":"0","num_feature":"50","num_nodes":"63","size_leaf_vector":"0"}},{"base_weights":[-5.667103E-1,-5.683654E-1,-4.6549118E-1,3.97351E-1,-5.273312E-1,1.2345679E0,-3.9215687E-1,-5.609195E-1,-5.0632913E-2,-4.2276424E-1,6.567164E-1],"categories":[],"categories_nodes":[],"categories_segments":[],"categories_sizes":[],"default_left":[1,0,1,1,1,0,0,0,1,0,0],"id":3,"left_children":[1,-1,3,5,7,-1,-1,-1,9,-1,-1],"loss_changes":[3.2385254E-1,0E0,3.5194101E0,3.6031878E0,9.052696E-1,0E0,0E0,0E0,1.5773188E0,0E0,0E0],"parents":[2147483647,0,0,2,2,3,3,4,4,8,8],"right_children":[2,-1,4,6,8,-1,-1,-1,10,-1,-1],"split_conditions":[4.00975E-1,-5.683654E-2,-1.3757752E0,1.16574064E-1,4.742055E-1,1.2345679E-1,-3.9215688E-2,-5.6091953E-2,-3.624622E-1,-4.2276423E-2,6.5671645E-2],"split_indices":[37,0,24,8,19,0,0,0,0,0,0],"split_type":[0,0,0,0,0,0,0,0,0,0,0],"sum_hessian":[3.5111562E3,3.450125E3,6.103125E1,3.71875E0,5.73125E1,1.53125E0,2.1875E0,5.3375E1,3.9375E0,2.84375E0,1.09375E0],"tree_param":{"num_deleted":"0","num_feature":"50","num_nodes":"11","size_leaf_vector":"0"}},{"base_weights":[-1.4560144E-1,-4.2697313E-1,2.5531273E0,-4.8085833E-1,1.1309698E0,7.848898E-1,3.5272088E0,-4.9620086E-1,1.4064838E0,3.410101E-1,3.1092784E0,1.9250978E0,-2.1995133E-1,2.114165E-1,3.7548084E0,-5.140399E-1,6.90411E-1,-4.528302E-1,3.2195122E0,1.816156E0,-2.571269E-1,2.3529412E-1,3.3244445E0,2.8224E0,-1.4711033E-1,1.8445596E0,-4.2661035E-1,-3.3898306E-1,1.4569536E0,3.8102868E0,1.2473118E0,-1.4476946E-1,-5.476358E-1,-1.3085765E-1,3.2022161E0,-5.244216E-1,1.7910448E-1,1.7910448E-1,3.488E0,1.4117648E-1,3.0634146E0,1.6421052E0,-3.5689455E-1,6.567164E-1,-2.9850745E-1,3.4735606E0,4.4444445E-1,3.71134E-1,3.4510596E0,-5.3097343E-1,1.0331125E0,2.5165563E0,-3.243243E-1,-5.075461E-1,7.29927E-1,-5.141066E-1,6.567164E-1,-2.9850745E-1,2.0689654E0,3.8385153E0,1.5384616E0,2.6526315E0,-1.6260162E-1],"categories":[],"categories_nodes":[],"categories_segments":[],"categories_sizes":[],"default_left":[1,1,1,1,1,1,1,1,1,1,1,1,1,1,1,1,1,1,1,1,1,1,1,1,1,1,1,1,1,1,1,0,0,0,0,0,0,0,0,0,0,0,0,0,0,0,0,0,0,0,0,0,0,0,0,0,0,0,0,0,0,0,0],"id":4,"left_children":[1,3,5,7,9,11,13,15,17,19,21,23,25,27,29,31,33,35,37,39,41,43,45,47,49,51,53,55,57,59,61,-1,-1,-1,-1,-1,-1,-1,-1,-1,-1,-1,-1,-1,-1,-1,-1,-1,-1,-1,-1,-1,-1,-1,-1,-1,-1,-1,-1,-1,-1,-1,-1],"loss_changes":[2.6680312E3,2.6762305E2,5.686404E2,8.976129E1,1.656204E2,1.3690826E2,1.604231E2,6.495288E1,8.59433E1,6.871041E1,1.7962524E1,1.04367096E2,2.8185823E1,1.0627067E1,2.3047852E1,3.7226196E1,9.453732E1,6.933706E-1,9.834305E0,4.644243E1,1.1179285E1,9.130817E-1,1.0534607E1,5.8914978E1,8.63256E0,9.606625E0,5.9107304E0,2.266595E0,5.687252E0,6.602295E0,1.1948088E1,0E0,0E0,0E0,0E0,0E0,0E0,0E0,0E0,0E0,0E0,0E0,0E0,0E0,0E0,0E0,0E0,0E0,0E0,0E0,0E0,0E0,0E0,0E0,0E0,0E0,0E0,0E0,0E0,0E0,0E0,0E0,0E0],"parents":[2147483647,0,0,1,1,2,2,3,3,4,4,5,5,6,6,7,7,8,8,9,9,10,10,11,11,12,12,13,13,14,14,15,15,16,16,17,17,18,18,19,19,20,20,21,21,22,22,23,23,24,24,25,25,26,26,27,27,28,28,29,29,30,30],"right_children":[2,4,6,8,10,12,14,16,18,20,22,24,26,28,30,32,34,36,38,40,42,44,46,48,50,52,54,56,58,60,62,-1,-1,-1,-1,-1,-1,-1,-1,-1,-1,-1,-1,-1,-1,-1,-1,-1,-1,-1,-1,-1,-1,-1,-1,-1,-1,-1,-1,-1,-1,-1,-1],"split_conditions":[3.6194592E0,1.5836046E0,1.4942914E0,2.2821403E0,1.818179E0,-2.0184376E0,6.324507E-1,-7.427749E-1,1.3124827E0,1.8661139E0,-8.243066E-1,-7.424164E-2,-2.794218E0,-3.0497813E0,-9.968844E-1,-1.6014414E0,1.5965317E0,2.7039723E0,1.6726449E0,-3.371242E0,-3.1689594E0,3.1310472E0,-1.3965109E-1,3.542192E-1,1.4832437E0,-1.075424E0,1.9432411E0,1.3568382E0,2.1590605E0,1.079531E0,-2.6578083E0,-1.4476947E-2,-5.476358E-2,-1.3085765E-2,3.2022163E-1,-5.244216E-2,1.7910449E-2,1.7910449E-2,3.488E-1,1.4117648E-2,3.0634147E-1,1.6421053E-1,-3.5689455E-2,6.5671645E-2,-2.9850746E-2,3.4735605E-1,4.4444446E-2,3.7113402E-2,3.4510598E-1,-5.3097345E-2,1.03311256E-1,2.5165564E-1,-3.2432433E-2,-5.0754614E-2,7.2992705E-2,-5.1410656E-2,6.5671645E-2,-2.9850746E-2,2.0689654E-1,3.8385153E-1,1.5384616E-1,2.6526317E-1,-1.6260162E-2],"split_indices":[42,6,4,38,13,10,13,2,31,17,38,15,5,1,10,5,13,0,4,1,20,3,33,13,13,16,6,16,3,27,15,0,0,0,0,0,0,0,0,0,0,0,0,0,0,0,0,0,0,0,0,0,0,0,0,0,0,0,0,0,0,0,0],"split_type":[0,0,0,0,0,0,0,0,0,0,0,0,0,0,0,0,0,0,0,0,0,0,0,0,0,0,0,0,0,0,0,0,0,0,0,0,0,0,0,0,0,0,0,0,0,0,0,0,0,0,0,0,0,0,0,0,0,0,0,0,0,0,0],"sum_hessian":[3.5111562E3,3.1804062E3,3.3075E2,3.07475E3,1.0565625E2,1.18125E2,2.12625E2,3.0506875E3,2.40625E1,7.634375E1,2.93125E1,5.490625E1,6.321875E1,1.378125E1,1.9884375E2,3.0060625E3,4.4625E1,1.225E1,1.18125E1,2.14375E1,5.490625E1,2.1875E0,2.7125E1,3.80625E1,1.684375E1,5.03125E0,5.81875E1,1.00625E1,3.71875E0,1.9403125E2,4.8125E0,2.51125E2,2.7549375E3,3.434375E1,1.028125E1,1.115625E1,1.09375E0,1.09375E0,1.071875E1,9.625E0,1.18125E1,1.96875E0,5.29375E1,1.09375E0,1.09375E0,2.559375E1,1.53125E0,8.09375E0,2.996875E1,1.3125E1,3.71875E0,3.71875E0,1.3125E0,5.490625E1,3.28125E0,8.96875E0,1.09375E0,1.09375E0,2.625E0,1.9096875E2,3.0625E0,1.96875E0,2.84375E0],"tree_param":{"num_deleted":"0","num_feature":"50","num_nodes":"63","size_leaf_vector":"0"}},{"base_weights":[-5.689881E-1,-5.701245E-1,3.305785E-2,-5.706928E-1,-3.5602096E-1,-4.830918E-1,1.6119403E0,4.4444445E-1,-5.165165E-1],"categories":[],"categories_nodes":[],"categories_segments":[],"categories_sizes":[],"default_left":[1,1,1,0,1,0,0,0,0],"id":5,"left_children":[1,3,5,-1,7,-1,-1,-1,-1],"loss_changes":[2.421875E0,2.2338867E-1,6.9416957E0,0E0,1.7631873E0,0E0,0E0,0E0,0E0],"parents":[2147483647,0,0,1,1,2,2,4,4],"right_children":[2,4,6,-1,8,-1,-1,-1,-1],"split_conditions":[4.5253963E0,3.7267168E0,-3.6029677E0,-5.706928E-2,-2.0838268E0,-4.830918E-2,1.6119403E-1,4.4444446E-2,-5.1651653E-2],"split_indices":[31,31,1,0,0,0,0,0,0],"split_type":[0,0,0,0,0,0,0,0,0],"sum_hessian":[3.5111562E3,3.5045938E3,6.5625E0,3.4936562E3,1.09375E1,5.46875E0,1.09375E0,1.53125E0,9.40625E0],"tree_param":{"num_deleted":"0","num_feature":"50","num_nodes":"9","size_leaf_vector":"0"}},{"base_weights":[-4.2292395E-1,1.210378E0,-5.2704495E-1,2.7926698E0,9.814722E-2,9.658214E-1,-5.39804E-1,-3.694779E-1,3.064692E0,2.2978723E0,-2.6112074E-1,-4.8442906E-1,3.2022161E0,-2.5730354E-1,-5.607431E-1,-4.8598132E-1,1.7910448E-1,3.3802817E0,5.644172E-1,-2.7906978E-1,3.1698112E0,1.7931035E0,-3.2918888E-1,1.7910448E-1,-5.377532E-1,1.0810811E-1,3.598746E0,9.960887E-1,-4.0268457E-1,-5.633269E-1,-4.597701E-2,1.5807561E0,3.5866866E0,-3.1088084E-1,1.4787879E0,-4.379562E-1,1.7910448E-1,1.0810811E-1,3.4973822E0,5.405405E-1,2.2702703E0,-3.9215687E-1,1.9789474E0,2.6959248E0,-2E-1,1.0441767E0,-4.574854E-1,-5.649615E-1,1.6528925E-1,2.5454545E0,-5.3218883E-1],"categories":[],"categories_nodes":[],"categories_segments":[],"categories_sizes":[],"default_left":[1,1,1,1,1,1,1,1,1,1,1,1,1,1,1,0,0,1,1,1,1,1,1,0,0,0,0,1,1,1,1,0,0,0,0,0,0,0,0,0,0,0,0,0,0,0,0,0,0,0,0],"id":6,"left_children":[1,3,5,7,9,11,13,15,17,19,21,23,25,27,29,-1,-1,31,33,35,37,39,41,-1,-1,-1,-1,43,45,47,49,-1,-1,-1,-1,-1,-1,-1,-1,-1,-1,-1,-1,-1,-1,-1,-1,-1,-1,-1,-1],"loss_changes":[5.979187E2,3.706743E2,6.3423645E1,7.5940674E1,9.923819E1,9.347945E1,1.9228455E1,5.843545E-1,6.136493E1,4.0486862E1,1.5717825E1,7.354078E-1,1.3451981E1,4.1918674E1,4.0283813E0,0E0,0E0,2.0701965E1,8.613261E0,4.6972743E-1,1.2910645E1,9.3942165E-1,1.6118378E1,0E0,0E0,0E0,0E0,4.9271362E1,1.6722073E1,3.7055054E0,2.1908163E1,0E0,0E0,0E0,0E0,0E0,0E0,0E0,0E0,0E0,0E0,0E0,0E0,0E0,0E0,0E0,0E0,0E0,0E0,0E0,0E0],"parents":[2147483647,0,0,1,1,2,2,3,3,4,4,5,5,6,6,7,7,8,8,9,9,10,10,11,11,12,12,13,13,14,14,17,17,18,18,19,19,20,20,21,21,22,22,27,27,28,28,29,29,30,30],"right_children":[2,4,6,8,10,12,14,16,18,20,22,24,26,28,30,-1,-1,32,34,36,38,40,42,-1,-1,-1,-1,44,46,48,50,-1,-1,-1,-1,-1,-1,-1,-1,-1,-1,-1,-1,-1,-1,-1,-1,-1,-1,-1,-1],"split_conditions":[-3.5628996E0,-1.7586417E0,-3.5020895E0,-5.723537E-1,-2.7559447E0,2.7852147E0,-2.6548698E0,4.0843663E0,4.243243E0,-1.1337869E0,-7.9851794E-1,-2.579167E0,-2.626635E-1,-2.0009274E0,2.7955165E0,-4.8598133E-2,1.7910449E-2,2.0152266E0,3.9362612E0,-3.6471615E0,2.3455834E0,1.6961839E0,2.180229E0,1.7910449E-2,-5.377532E-2,1.0810811E-2,3.598746E-1,-2.8613439E0,-2.9488626E0,3.1675866E0,-2.9886026E0,1.5807562E-1,3.5866866E-1,-3.1088084E-2,1.478788E-1,-4.3795623E-2,1.7910449E-2,1.0810811E-2,3.497382E-1,5.405405E-2,2.2702704E-1,-3.9215688E-2,1.9789474E-1,2.695925E-1,-2.0000001E-2,1.04417674E-1,-4.5748543E-2,-5.649615E-2,1.6528925E-2,2.5454545E-1,-5.3218883E-2],"split_indices":[33,19,38,8,11,47,33,0,3,18,17,6,21,16,5,0,0,48,48,1,48,12,15,0,0,0,0,19,31,35,20,0,0,0,0,0,0,0,0,0,0,0,0,0,0,0,0,0,0,0,0],"split_type":[0,0,0,0,0,0,0,0,0,0,0,0,0,0,0,0,0,0,0,0,0,0,0,0,0,0,0,0,0,0,0,0,0,0,0,0,0,0,0,0,0,0,0,0,0,0,0,0,0,0,0],"sum_hessian":[3.5111562E3,2.0978125E2,3.301375E3,8.596875E1,1.238125E2,2.734375E1,3.2740312E3,6.78125E0,7.91875E1,1.6625E1,1.071875E2,1.70625E1,1.028125E1,2.2684375E2,3.0471875E3,5.6875E0,1.09375E0,7E1,9.1875E0,4.375E0,1.225E1,2.625E0,1.045625E2,1.09375E0,1.596875E1,1.3125E0,8.96875E0,2.296875E1,2.03875E2,3.031875E3,1.53125E1,8.09375E0,6.190625E1,5.03125E0,4.15625E0,3.28125E0,1.09375E0,1.3125E0,1.09375E1,1.3125E0,1.3125E0,1.0259375E2,1.96875E0,8.96875E0,1.4E1,6.78125E0,1.9709375E2,3.0253125E3,6.5625E0,1.75E0,1.35625E1],"tree_param":{"num_deleted":"0","num_feature":"50","num_nodes":"51","size_leaf_vector":"0"}},{"base_weights":[-5.385225E-1,-5.4851204E-1,-1.271249E-1,-9.638554E-3,-5.524574E-1,-3.0769232E-1,1.7520661E0,-4.929797E-1,1.3936652E0,-5.574245E-1,-3.3662584E-1,-3.8979506E-1,1.1970803E0,2.5698323E0,-3.7894738E-1,1.7910448E-1,-5.412541E-1,-4.2276424E-1,2.7692308E0,-5.580118E-1,-0E0,1.7813765E-1,-4.5432577E-1,1.1343284E0,-4.278438E-1,-3.6363637E-1,2.419753E0,3.0153847E0,8.3950615E-1,1.7910448E-1,-5.583085E-1,6.567164E-1,-4.0366971E-1,1.1396648E0,-3.3429396E-1,-5.132383E-1,4.9635038E-1,4.7706422E-1,-4.651163E-1],"categories":[],"categories_nodes":[],"categories_segments":[],"categories_sizes":[],"default_left":[1,1,1,1,1,1,1,1,1,1,1,1,1,1,0,0,0,0,0,1,1,1,1,0,1,0,0,0,0,0,0,0,0,0,0,0,0,0,0],"id":7,"left_children":[1,3,5,7,9,11,13,15,17,19,21,23,25,27,-1,-1,-1,-1,-1,29,31,33,35,-1,37,-1,-1,-1,-1,-1,-1,-1,-1,-1,-1,-1,-1,-1,-1],"loss_changes":[1.4364197E1,7.2839355E0,2.9232899E1,1.8279793E1,3.4613037E0,1.0103203E1,1.4152781E1,7.468443E-1,1.8426811E1,1.088623E0,4.8730354E0,4.818327E0,9.049587E0,1.7810707E0,0E0,0E0,0E0,0E0,0E0,8.265381E-1,1.4580309E0,7.9873E0,3.8759308E0,0E0,2.7051258E0,0E0,0E0,0E0,0E0,0E0,0E0,0E0,0E0,0E0,0E0,0E0,0E0,0E0,0E0],"parents":[2147483647,0,0,1,1,2,2,3,3,4,4,5,5,6,6,7,7,8,8,9,9,10,10,11,11,12,12,13,13,19,19,20,20,21,21,22,22,24,24],"right_children":[2,4,6,8,10,12,14,16,18,20,22,24,26,28,-1,-1,-1,-1,-1,30,32,34,36,-1,38,-1,-1,-1,-1,-1,-1,-1,-1,-1,-1,-1,-1,-1,-1],"split_conditions":[5.161029E0,-3.6455445E0,2.7414765E0,3.5247269E0,4.517728E0,2.6745355E0,-9.436371E-1,-2.125495E0,1.4870641E0,2.0013099E0,1.2669435E0,5.185892E0,-1.683536E0,3.466476E0,-3.7894737E-2,1.7910449E-2,-5.412541E-2,-4.2276423E-2,2.769231E-1,-4.232067E0,-3.0943704E0,-3.9421391E0,4.4906716E0,1.1343284E-1,-5.1413345E-1,-3.636364E-2,2.4197531E-1,3.0153847E-1,8.395062E-2,1.7910449E-2,-5.5830847E-2,6.5671645E-2,-4.0366974E-2,1.1396648E-1,-3.3429395E-2,-5.132383E-2,4.9635038E-2,4.770642E-2,-4.651163E-2],"split_indices":[3,45,29,22,47,18,10,11,0,37,36,3,23,0,0,0,0,0,0,7,0,1,36,0,28,0,0,0,0,0,0,0,0,0,0,0,0,0,0],"split_type":[0,0,0,0,0,0,0,0,0,0,0,0,0,0,0,0,0,0,0,0,0,0,0,0,0,0,0,0,0,0,0,0,0,0,0,0,0,0,0],"sum_hessian":[3.5111562E3,3.4275938E3,8.35625E1,2.49375E1,3.4026562E3,7.7E1,6.5625E0,1.903125E1,5.90625E0,3.3245625E3,7.809375E1,7.371875E1,3.28125E0,4.59375E0,1.96875E0,1.09375E0,1.79375E1,2.84375E0,3.0625E0,3.3210625E3,3.5E0,1.44375E1,6.365625E1,1.09375E0,7.2625E1,1.75E0,1.53125E0,3.0625E0,1.53125E0,1.09375E0,3.3199688E3,1.09375E0,2.40625E0,4.59375E0,9.84375E0,6.0375E1,3.28125E0,2.40625E0,7.021875E1],"tree_param":{"num_deleted":"0","num_feature":"50","num_nodes":"39","size_leaf_vector":"0"}},{"base_weights":[2.1356876E0,2.4090095E0,2.3459828E-1,3.8163075E-1,2.508399E0,1.8335193E0,-1.683928E-1,1.3589818E0,-2.0882757E-1,1.1443411E0,2.5717266E0,2.2886338E0,3.6898847E-3,1.2640644E0,-3.8750014E-1,1.9648862E0,9.130557E-2,1.1438874E0,-3.4533396E-1,2.4006963E0,5.179252E-2,2.6749647E0,2.160982E0,2.500233E0,-3.8130216E-2,1.3585672E0,-5.361675E-1,1.886267E-1,2.4226995E0,-4.07005E-1,1.9527724E0,4.0750626E-2,2.263099E0,1.4451576E0,-3.7605873E-1,2.229189E0,-4.6546736E-1,1.2978396E0,-4.159527E-1,2.5652316E0,3.5834235E-1,-1.5987012E-1,2.286E0,2.680154E0,3.06373E-1,9.174493E-1,2.4433436E0,2.5789754E0,1.1883116E-1,1.1237867E0,-3.592227E-1,-3.6753026E-1,2.0225108E0,1.6497555E0,-2.735584E-1,2.7174506E0,-4.101336E-1,-4.2394456E-1,1.3719894E0],"categories":[],"categories_nodes":[],"categories_segments":[],"categories_sizes":[],"default_left":[1,1,1,1,1,1,1,1,1,1,1,1,1,1,1,1,1,1,1,1,1,1,1,1,1,1,0,1,1,1,0,0,0,0,0,0,0,0,0,0,0,0,0,0,0,0,0,0,0,0,0,0,0,0,0,0,0,0,0],"id":8,"left_children":[1,3,5,7,9,11,13,15,17,19,21,23,25,27,29,31,33,35,37,39,41,43,45,47,49,51,-1,53,55,57,-1,-1,-1,-1,-1,-1,-1,-1,-1,-1,-1,-1,-1,-1,-1,-1,-1,-1,-1,-1,-1,-1,-1,-1,-1,-1,-1,-1,-1],"loss_changes":[2.312748E3,7.8334375E2,3.616121E2,1.0593479E2,3.175547E2,9.406232E1,1.4133998E2,5.2882202E1,2.1629246E1,2.2829494E2,1.4453516E2,4.4631897E1,1.7917923E1,7.401968E1,1.859674E1,2.6700241E1,1.5343037E1,1.985346E1,1.2749668E1,2.508368E1,4.2940292E1,3.3947266E1,2.4959033E2,1.5244934E1,3.584466E0,8.74145E0,0E0,2.2117142E1,2.506842E1,1.2262062E1,0E0,0E0,0E0,0E0,0E0,0E0,0E0,0E0,0E0,0E0,0E0,0E0,0E0,0E0,0E0,0E0,0E0,0E0,0E0,0E0,0E0,0E0,0E0,0E0,0E0,0E0,0E0,0E0,0E0],"parents":[2147483647,0,0,1,1,2,2,3,3,4,4,5,5,6,6,7,7,8,8,9,9,10,10,11,11,12,12,13,13,14,14,15,15,16,16,17,17,18,18,19,19,20,20,21,21,22,22,23,23,24,24,25,25,27,27,28,28,29,29],"right_children":[2,4,6,8,10,12,14,16,18,20,22,24,26,28,30,32,34,36,38,40,42,44,46,48,50,52,-1,54,56,58,-1,-1,-1,-1,-1,-1,-1,-1,-1,-1,-1,-1,-1,-1,-1,-1,-1,-1,-1,-1,-1,-1,-1,-1,-1,-1,-1,-1,-1],"split_conditions":[1.5941496E0,-3.1547728E0,-1.1654558E0,2.661251E0,-3.1063547E0,3.1234684E0,9.929735E-1,1.0251245E0,-2.3762107E0,-1.9610212E0,4.8945698E-1,3.3054543E-1,2.0479395E0,-4.3300742E-1,1.5388138E0,-1.6277022E0,-1.1372049E0,-3.0045733E-1,-1.8298392E0,1.4287275E0,3.1016266E-1,3.6957865E0,-1.1232431E0,-1.859743E0,-3.1203687E-1,-8.36395E-1,-5.361675E-2,-1.5233223E0,3.6325994E0,1.8783598E0,1.9527724E-1,4.075063E-3,2.263099E-1,1.4451577E-1,-3.7605874E-2,2.229189E-1,-4.654674E-2,1.2978397E-1,-4.1595273E-2,2.5652316E-1,3.5834234E-2,-1.5987013E-2,2.2860001E-1,2.680154E-1,3.06373E-2,9.174493E-2,2.4433437E-1,2.5789756E-1,1.1883116E-2,1.1237867E-1,-3.592227E-2,-3.6753025E-2,2.0225108E-1,1.6497555E-1,-2.735584E-2,2.7174506E-1,-4.101336E-2,-4.2394456E-2,1.3719894E-1],"split_indices":[13,33,8,28,23,3,42,8,6,26,13,49,13,34,33,5,15,15,7,0,20,8,5,1,31,5,0,39,36,45,0,0,0,0,0,0,0,0,0,0,0,0,0,0,0,0,0,0,0,0,0,0,0,0,0,0,0,0,0],"split_type":[0,0,0,0,0,0,0,0,0,0,0,0,0,0,0,0,0,0,0,0,0,0,0,0,0,0,0,0,0,0,0,0,0,0,0,0,0,0,0,0,0,0,0,0,0,0,0,0,0,0,0,0,0,0,0,0,0,0,0],"sum_hessian":[4.4510264E3,3.891302E3,5.597244E2,1.82077E2,3.709225E3,1.1195967E2,4.4776477E2,6.808248E1,1.1399452E2,1.6541005E2,3.543815E3,8.9458786E1,2.250089E1,5.8770683E1,3.8899408E2,4.56929E1,2.238958E1,9.772623E0,1.0422189E2,7.638047E1,8.902958E1,2.827603E3,7.16212E2,8.193312E1,7.525659E0,5.9789696E0,1.6521921E1,3.1082708E1,2.7687975E1,3.8659808E2,2.3959937E0,6.2839675E0,3.940893E1,5.2087703E0,1.7180809E1,5.606571E0,4.166052E0,3.5784962E0,1.006434E2,7.044897E1,5.9314995E0,8.2173164E1,6.856414E0,2.82129E3,6.312859E0,1.3331898E2,5.82893E2,7.9230354E1,2.7027657E0,1.0881512E0,6.437508E0,1.7849532E0,4.1940165E0,6.851921E0,2.4230787E1,2.5115484E1,2.5724914E0,3.8370615E2,2.891952E0],"tree_param":{"num_deleted":"0","num_feature":"50","num_nodes":"59","size_leaf_vector":"0"}},{"base_weights":[-5.319836E-1,1.8658532E-1,-5.494658E-1,1.4213217E0,-2.709354E-1,8.3501816E-1,-5.5037993E-1,-3.5238567E-1,2.1675785E0,-5.323397E-1,5.6794566E-1,-1.4440738E-1,-5.515611E-1,-4.7630116E-1,1.9462267E-1,2.277454E-3,2.443039E0,1.7854941E-1,-5.5390507E-1,1.6783273E0,-4.9878386E-1,1.0692486E0,-4.041444E-1,-5.585367E-1,-4.807728E-1,2.5609477E0,6.211313E-1,-5.647946E-2,2.355161E0,1.9853692E-1,-5.011921E-1,-5.5887216E-1,1.7439017E-1,-5.269083E-1,-9.6852124E-2],"categories":[],"categories_nodes":[],"categories_segments":[],"categories_sizes":[],"default_left":[1,1,1,1,1,0,1,1,1,1,1,1,1,0,0,0,1,0,0,1,0,0,1,1,1,0,0,0,0,0,0,0,0,0,0],"id":9,"left_children":[1,3,5,7,9,-1,11,13,15,17,19,21,23,-1,-1,-1,25,-1,-1,27,-1,-1,29,31,33,-1,-1,-1,-1,-1,-1,-1,-1,-1,-1],"loss_changes":[4.184314E1,4.53896E1,4.5652466E0,2.948499E1,1.3233051E1,0E0,1.4752808E0,5.865605E-1,9.187393E0,7.9604053E-1,1.8003897E1,3.8245225E0,1.3278198E0,0E0,0E0,0E0,1.3463821E0,0E0,0E0,8.740158E0,0E0,0E0,6.6042435E-1,8.1933594E-1,5.2125244E0,0E0,0E0,0E0,0E0,0E0,0E0,0E0,0E0,0E0,0E0],"parents":[2147483647,0,0,1,1,2,2,3,3,4,4,6,6,7,7,8,8,9,9,10,10,11,11,12,12,16,16,19,19,22,22,23,23,24,24],"right_children":[2,4,6,8,10,-1,12,14,16,18,20,22,24,-1,-1,-1,26,-1,-1,28,-1,-1,30,32,34,-1,-1,-1,-1,-1,-1,-1,-1,-1,-1],"split_conditions":[-3.1700733E0,-2.5668886E0,-6.701126E0,-8.02687E-1,-2.9179013E0,8.3501816E-2,-5.7576537E0,4.982434E-1,1.6559968E0,-1.2958574E0,-8.1766874E-1,-3.2443793E0,1.028899E0,-4.7630116E-2,1.9462267E-2,2.2774539E-4,1.6526852E0,1.7854942E-2,-5.5390507E-2,2.0733955E0,-4.9878385E-2,1.06924854E-1,2.2547798E0,2.4579105E0,-2.4299678E-1,2.5609478E-1,6.2113132E-2,-5.647946E-3,2.355161E-1,1.9853693E-2,-5.011921E-2,-5.588722E-2,1.7439017E-2,-5.269083E-2,-9.685213E-3],"split_indices":[45,40,32,15,1,0,39,44,7,36,40,46,31,0,0,0,6,0,0,12,0,0,48,26,25,0,0,0,0,0,0,0,0,0,0],"split_type":[0,0,0,0,0,0,0,0,0,0,0,0,0,0,0,0,0,0,0,0,0,0,0,0,0,0,0,0,0,0,0,0,0,0,0],"sum_hessian":[3.3217256E3,7.866564E1,3.24306E3,2.0698603E1,5.7967037E1,1.5378083E0,3.2415222E3,6.28594E0,1.44126625E1,4.4473907E1,1.3493127E1,9.761592E0,3.2317605E3,5.230354E0,1.0555866E0,1.7403806E0,1.2672282E1,1.0951024E0,4.3378807E1,6.33037E0,7.162757E0,1.1714017E0,8.59019E0,2.935592E3,2.9616852E2,1.1521032E1,1.1512501E0,2.033869E0,4.2965007E0,1.046361E0,7.543829E0,2.9344866E3,1.1054575E0,2.6406372E2,3.2104794E1],"tree_param":{"num_deleted":"0","num_feature":"50","num_nodes":"35","size_leaf_vector":"0"}},{"base_weights":[-1.1149492E-1,-3.906708E-1,1.4808674E0,-4.9399367E-1,-1.4651676E-2,-8.213826E-2,2.233217E0,-1.6647843E-1,-5.2521E-1,-4.9357677E-1,7.9163015E-1,-4.3757406E-1,9.882328E-1,1.9934115E-1,2.5249279E0,-4.193176E-1,7.3058903E-1,-5.526596E-1,-4.1599756E-1,-5.244614E-1,4.1339445E-1,7.4405305E-2,2.1769972E0,1.811546E-2,-5.419315E-1,-4.2122602E-1,1.8665415E0,-3.798723E-1,1.2381059E0,5.068261E-1,2.6216416E0,-4.42907E-1,9.048852E-1,2.1039326E0,6.1538415E-3,-5.5383474E-1,4.552509E-1,-5.2110714E-1,1.5115446E-2,-5.344674E-1,5.226972E-1,-3.1429663E-1,1.8865474E0,1.4529628E0,-2.2640759E-1,-9.009552E-2,2.5955896E0,-4.378444E-1,1.4121487E0,3.5209474E-1,-5.6103086E-1,5.946852E-1,-5.349707E-1,2.3491778E0,-2.976977E-1,1.1080115E0,-4.778563E-1,-1.1870078E-2,2.2245777E0,1.9543375E0,-3.3282384E-1,2.6606472E0,-2.4321462E-1],"categories":[],"categories_nodes":[],"categories_segments":[],"categories_sizes":[],"default_left":[1,1,1,1,1,1,1,1,1,1,1,1,1,1,1,1,1,1,1,1,1,1,1,1,1,1,1,1,1,1,1,0,0,0,0,0,0,0,0,0,0,0,0,0,0,0,0,0,0,0,0,0,0,0,0,0,0,0,0,0,0,0,0],"id":10,"left_children":[1,3,5,7,9,11,13,15,17,19,21,23,25,27,29,31,33,35,37,39,41,43,45,47,49,51,53,55,57,59,61,-1,-1,-1,-1,-1,-1,-1,-1,-1,-1,-1,-1,-1,-1,-1,-1,-1,-1,-1,-1,-1,-1,-1,-1,-1,-1,-1,-1,-1,-1,-1,-1],"loss_changes":[1.5373135E3,1.1429257E2,6.068003E2,2.3507141E1,2.4566379E2,6.457163E1,2.0612903E2,4.6187565E1,6.085083E0,1.1396133E1,2.3540488E2,6.0613575E0,5.3193073E1,2.7407915E1,5.8103516E1,5.3500843E0,4.4601147E1,2.2425537E0,1.9363892E1,4.3279877E0,1.5281437E1,6.553598E1,7.694614E1,1.6305416E1,1.9661102E0,2.2904825E0,2.8134605E1,4.831586E0,2.0079018E1,1.9082052E1,3.3091064E1,0E0,0E0,0E0,0E0,0E0,0E0,0E0,0E0,0E0,0E0,0E0,0E0,0E0,0E0,0E0,0E0,0E0,0E0,0E0,0E0,0E0,0E0,0E0,0E0,0E0,0E0,0E0,0E0,0E0,0E0,0E0,0E0],"parents":[2147483647,0,0,1,1,2,2,3,3,4,4,5,5,6,6,7,7,8,8,9,9,10,10,11,11,12,12,13,13,14,14,15,15,16,16,17,17,18,18,19,19,20,20,21,21,22,22,23,23,24,24,25,25,26,26,27,27,28,28,29,29,30,30],"right_children":[2,4,6,8,10,12,14,16,18,20,22,24,26,28,30,32,34,36,38,40,42,44,46,48,50,52,54,56,58,60,62,-1,-1,-1,-1,-1,-1,-1,-1,-1,-1,-1,-1,-1,-1,-1,-1,-1,-1,-1,-1,-1,-1,-1,-1,-1,-1,-1,-1,-1,-1,-1,-1],"split_conditions":[2.647675E0,-1.4468324E-1,2.8870609E-3,1.0291674E0,-5.180659E-1,2.4985038E-1,-1.5905898E0,4.0077555E-1,-6.449336E-1,1.846147E0,7.1749806E-1,1.6834261E0,-3.8968498E-1,8.8925606E-1,-1.2801092E0,2.3720775E0,-1.0218195E0,2.2378716E0,-1.3838384E-1,6.548486E-1,-1.6523783E0,-1.0588574E0,-2.2774816E0,1.1825855E0,-5.6844125E0,-2.8569527E0,2.86875E-1,-3.6752984E-1,2.4123814E0,1.3612756E0,-1.6396625E-1,-4.4290703E-2,9.0488516E-2,2.1039326E-1,6.1538414E-4,-5.5383474E-2,4.552509E-2,-5.2110713E-2,1.5115447E-3,-5.344674E-2,5.2269723E-2,-3.1429663E-2,1.8865475E-1,1.4529628E-1,-2.264076E-2,-9.009552E-3,2.5955898E-1,-4.378444E-2,1.4121488E-1,3.5209473E-2,-5.6103088E-2,5.946852E-2,-5.3497072E-2,2.3491779E-1,-2.9769769E-2,1.1080115E-1,-4.7785632E-2,-1.1870078E-3,2.2245777E-1,1.9543375E-1,-3.3282384E-2,2.6606473E-1,-2.4321463E-2],"split_indices":[30,0,44,28,10,10,39,13,41,44,13,28,0,13,0,4,5,37,10,39,26,34,26,9,26,34,24,28,3,28,23,0,0,0,0,0,0,0,0,0,0,0,0,0,0,0,0,0,0,0,0,0,0,0,0,0,0,0,0,0,0,0,0],"split_type":[0,0,0,0,0,0,0,0,0,0,0,0,0,0,0,0,0,0,0,0,0,0,0,0,0,0,0,0,0,0,0,0,0,0,0,0,0,0,0,0,0,0,0,0,0,0,0,0,0,0,0,0,0,0,0,0,0,0,0,0,0,0,0],"sum_hessian":[3.4558394E3,2.9409768E3,5.1486273E2,2.3067988E3,6.341779E2,1.6758853E2,3.4727423E2,2.0128581E2,2.105513E3,3.9809842E2,2.3607951E2,1.2625463E2,4.1333908E1,4.3771633E1,3.035026E2,1.5744296E2,4.3842854E1,1.6793611E3,4.2615192E2,3.8539645E2,1.2701956E1,1.562436E2,7.98359E1,2.3679893E1,1.0257474E2,1.606851E1,2.5265398E1,2.8509235E1,1.5262397E1,1.4165012E1,2.893376E2,1.5534123E2,2.101725E0,1.4482846E1,2.9360006E1,1.6778552E3,1.5058312E0,3.4245038E2,8.370153E1,3.8223367E2,3.1627939E0,9.028708E0,3.6732466E0,2.7300676E1,1.2894293E2,1.2565586E1,6.727032E1,1.8360472E1,5.319421E0,1.7808251E0,1.00793915E2,1.1921923E0,1.4876318E1,2.0588589E1,4.6768103E0,1.1245712E0,2.7384665E1,7.167852E0,8.094545E0,4.7128134E0,9.452199E0,2.8552142E2,3.8161476E0],"tree_param":{"num_deleted":"0","num_feature":"50","num_nodes":"63","size_leaf_vector":"0"}},{"base_weights":[-5.6120557E-1,-5.6294364E-1,-4.5592427E-1,3.7622377E-1,-5.201095E-1,-3.951297E-1,1.1884885E0,-5.552162E-1,-4.4258934E-2,-4.1934803E-1,6.5436804E-1],"categories":[],"categories_nodes":[],"categories_segments":[],"categories_sizes":[],"default_left":[1,0,1,1,1,0,0,0,1,0,0],"id":11,"left_children":[1,-1,3,5,7,-1,-1,-1,9,-1,-1],"loss_changes":[3.499756E-1,0E0,3.3520184E0,3.484503E0,8.989544E-1,0E0,0E0,0E0,1.5545013E0,0E0,0E0],"parents":[2147483647,0,0,2,2,3,3,4,4,8,8],"right_children":[2,-1,4,6,8,-1,-1,-1,10,-1,-1],"split_conditions":[4.00975E-1,-5.6294363E-2,-1.3757752E0,-5.5978864E-1,4.742055E-1,-3.9512973E-2,1.1884885E-1,-5.552162E-2,-4.499377E-1,-4.1934803E-2,6.54368E-2],"split_indices":[37,0,24,49,19,0,0,0,20,0,0],"split_type":[0,0,0,0,0,0,0,0,0,0,0],"sum_hessian":[3.31388E3,3.2557852E3,5.8094658E1,3.8119516E0,5.4282703E1,2.2186213E0,1.5933304E0,5.0397736E1,3.8849692E0,2.7879095E0,1.0970597E0],"tree_param":{"num_deleted":"0","num_feature":"50","num_nodes":"11","size_leaf_vector":"0"}},{"base_weights":[-1.3761306E-1,-4.165663E-1,1.9455805E0,-5.001675E-1,5.249557E-1,-4.296459E-2,2.3190687E0,-5.167087E-1,1.3112855E0,-5.3269424E-2,2.10925E0,-3.309667E-1,1.0694587E0,2.5115924E0,-2.5942473E-4,-5.326781E-1,6.622742E-2,-4.254863E-1,2.462413E0,6.7724067E-1,-4.6859467E-1,2.4153745E0,2.4027956E-1,-4.033637E-1,1.702691E0,1.8682451E0,7.0254825E-2,1.9253714E0,2.675429E0,-5.395221E-1,1.3628494E0,2.8605035E-1,-5.41652E-1,-3.5747567E-1,2.5408003E0,1.9912654E-1,-5.106635E-1,2.0153907E-1,2.6054847E0,-2.3663092E-1,1.3328643E0,6.7685306E-1,-4.8488644E-1,5.515805E-1,2.7217605E0,-5.0029206E-1,1.7736175E0,-4.7406676E-1,5.268999E-1,2.2918298E0,5.8911286E-2,-3.0553505E-1,1.0611645E0,2.292407E0,8.0927365E-2,2.6870236E0,1.3470717E-1,2.3110337E0,-1.7561236E-1],"categories":[],"categories_nodes":[],"categories_segments":[],"categories_sizes":[],"default_left":[1,1,1,1,1,1,1,1,1,1,1,1,1,1,1,1,1,1,1,1,1,1,1,1,0,1,1,1,1,0,1,0,0,0,0,0,0,0,0,0,0,0,0,0,0,0,0,0,0,0,0,0,0,0,0,0,0,0,0],"id":12,"left_children":[1,3,5,7,9,11,13,15,17,19,21,23,25,27,29,31,33,35,37,39,41,43,45,47,-1,49,51,53,55,-1,57,-1,-1,-1,-1,-1,-1,-1,-1,-1,-1,-1,-1,-1,-1,-1,-1,-1,-1,-1,-1,-1,-1,-1,-1,-1,-1,-1,-1],"loss_changes":[2.0043573E3,2.3966113E2,3.0262622E2,8.439343E1,2.2777997E2,2.1303663E1,1.5313403E2,2.581549E1,5.2157104E1,5.585394E1,3.7453186E1,8.446761E0,1.0790663E1,2.5262207E1,2.0791954E1,1.9960205E1,7.926385E1,6.891891E-1,4.4956284E0,4.0313477E1,2.5169945E0,3.105365E1,1.2772384E1,3.650405E0,0E0,5.663309E0,2.9749386E0,4.9054688E1,6.8530273E0,0E0,1.210224E1,0E0,0E0,0E0,0E0,0E0,0E0,0E0,0E0,0E0,0E0,0E0,0E0,0E0,0E0,0E0,0E0,0E0,0E0,0E0,0E0,0E0,0E0,0E0,0E0,0E0,0E0,0E0,0E0],"parents":[2147483647,0,0,1,1,2,2,3,3,4,4,5,5,6,6,7,7,8,8,9,9,10,10,11,11,12,12,13,13,14,14,15,15,16,16,17,17,18,18,19,19,20,20,21,21,22,22,23,23,25,25,26,26,27,27,28,28,30,30],"right_children":[2,4,6,8,10,12,14,16,18,20,22,24,26,28,30,32,34,36,38,40,42,44,46,48,-1,50,52,54,56,-1,58,-1,-1,-1,-1,-1,-1,-1,-1,-1,-1,-1,-1,-1,-1,-1,-1,-1,-1,-1,-1,-1,-1,-1,-1,-1,-1,-1,-1],"split_conditions":[3.6194592E0,8.958912E-1,6.2507504E-1,2.2821403E0,1.4029362E0,1.0515254E0,-1.0615418E0,4.3278804E-1,1.3124827E0,2.2620103E0,-8.407817E-1,-3.7837148E-1,-8.484816E-1,1.8136096E0,3.0745177E0,-3.7599335E0,-1.3805122E0,-3.105629E0,-1.1294322E0,-2.2700764E-1,-4.8011713E0,-1.327726E0,3.39564E0,5.8917055E0,1.702691E-1,2.6155286E0,9.310195E-2,-7.424164E-2,1.8139613E0,-5.3952213E-2,-5.2219108E-2,2.8605035E-2,-5.4165203E-2,-3.574757E-2,2.5408003E-1,1.9912655E-2,-5.106635E-2,2.0153908E-2,2.6054847E-1,-2.3663092E-2,1.3328643E-1,6.7685306E-2,-4.8488643E-2,5.515805E-2,2.7217606E-1,-5.0029207E-2,1.7736176E-1,-4.7406677E-2,5.268999E-2,2.2918299E-1,5.891129E-3,-3.0553505E-2,1.0611645E-1,2.292407E-1,8.092737E-3,2.6870236E-1,1.3470717E-2,2.3110338E-1,-1.7561236E-2],"split_indices":[42,6,13,38,13,38,10,26,31,17,33,1,29,4,28,10,2,10,12,38,15,31,4,3,0,17,13,15,20,0,29,0,0,0,0,0,0,0,0,0,0,0,0,0,0,0,0,0,0,0,0,0,0,0,0,0,0,0,0],"split_type":[0,0,0,0,0,0,0,0,0,0,0,0,0,0,0,0,0,0,0,0,0,0,0,0,0,0,0,0,0,0,0,0,0,0,0,0,0,0,0,0,0,0,0,0,0,0,0,0,0,0,0,0,0,0,0,0,0,0,0],"sum_hessian":[3.4467715E3,3.040437E3,4.063344E2,2.7929128E3,2.4752405E2,6.439014E1,3.4194427E2,2.7683486E3,2.4564333E1,1.8204784E2,6.547622E1,5.1706104E1,1.2684031E1,3.1565903E2,2.628525E1,2.6946165E3,7.373225E1,1.0042706E1,1.4521627E1,6.575739E1,1.1629044E2,5.6009842E1,9.466375E0,5.0702774E1,1.0033325E0,6.5656037E0,6.1184273E0,7.173544E1,2.4392357E2,1.9267132E1,7.018118E0,2.8880157E1,2.665736E3,6.3683693E1,1.0048554E1,1.0446187E0,8.998087E0,1.0076118E0,1.3514016E1,2.773573E1,3.8021667E1,1.0622133E0,1.15228226E2,8.302814E0,4.7707027E1,6.8376503E0,2.628725E0,4.757715E1,3.1256237E0,5.1040254E0,1.4615781E0,4.9375763E0,1.180851E0,5.962706E1,1.2108379E1,2.4275818E2,1.1653932E0,4.031347E0,2.9867709E0],"tree_param":{"num_deleted":"0","num_feature":"50","num_nodes":"59","size_leaf_vector":"0"}},{"base_weights":[-5.635999E-1,-5.6479526E-1,4.100113E-2,-5.653919E-1,-3.4485823E-1,-4.7674975E-1,1.4745308E0,4.5788744E-1,-5.1089233E-1],"categories":[],"categories_nodes":[],"categories_segments":[],"categories_sizes":[],"default_left":[1,1,1,0,1,0,0,0,0],"id":13,"left_children":[1,3,5,-1,7,-1,-1,-1,-1],"loss_changes":[2.418457E0,2.3901367E-1,6.248795E0,0E0,1.7683496E0,0E0,0E0,0E0,0E0],"parents":[2147483647,0,0,1,1,2,2,4,4],"right_children":[2,4,6,-1,8,-1,-1,-1,-1],"split_conditions":[4.5253963E0,3.7267168E0,-3.6029677E0,-5.653919E-2,-1.7945137E0,-4.7674976E-2,1.4745308E-1,4.5788746E-2,-5.1089235E-2],"split_indices":[31,31,1,0,13,0,0,0,0],"split_type":[0,0,0,0,0,0,0,0,0],"sum_hessian":[3.3131777E3,3.3067058E3,6.472014E0,3.296193E3,1.0512469E1,5.2450705E0,1.2269435E0,1.5004187E0,9.012051E0],"tree_param":{"num_deleted":"0","num_feature":"50","num_nodes":"9","size_leaf_vector":"0"}},{"base_weights":[-4.126303E-1,9.91715E-1,-5.227276E-1,2.08634E0,7.8639984E-2,8.0308694E-1,-5.3513885E-1,-3.6154604E-1,2.2436624E0,1.3370003E0,-3.5475454E-1,-4.7442892E-1,2.3726628E0,-5.5028284E-1,-1.6956809E-1,1.9859517E-1,-4.817164E-1,2.416913E0,2.3063686E-1,-2.4839762E-1,1.998655E0,-4.293806E-1,1.4891224E0,-5.3104717E-1,1.9746286E-1,1.0105201E-1,2.617169E0,1.7511044E0,-5.5261874E-1,-4.5261797E-1,1.0290862E0,2.517981E0,4.94781E-1,-4.6908516E-1,1.0283254E0,-5.118978E-1,1.202266E0,-4.1760534E-1,2.3112316E0,1.459858E0,-4.8866856E-1,2.248631E0,-3.026267E-1,-5.5460113E-1,2.0587912E-1,4.8659316E-1,-4.801285E-1,-4.2185488E-1,2.0562937E0],"categories":[],"categories_nodes":[],"categories_segments":[],"categories_sizes":[],"default_left":[1,1,1,1,1,1,1,1,1,1,1,1,1,1,1,0,0,1,1,1,1,1,1,0,0,0,0,0,1,1,1,0,0,0,0,0,0,0,0,0,0,0,0,0,0,0,0,0,0],"id":14,"left_children":[1,3,5,7,9,11,13,15,17,19,21,23,25,27,29,-1,-1,31,33,35,37,39,41,-1,-1,-1,-1,-1,43,45,47,-1,-1,-1,-1,-1,-1,-1,-1,-1,-1,-1,-1,-1,-1,-1,-1,-1,-1],"loss_changes":[5.1985223E2,2.4423813E2,5.1692993E1,4.3623596E1,7.375005E1,5.9862698E1,1.6997314E1,6.0552573E-1,3.5921143E1,3.68231E1,1.4500021E1,7.508917E-1,7.128563E0,1.6900452E1,4.2618538E1,0E0,0E0,1.744281E1,5.725807E0,4.8532486E0,1.9502266E1,1.1644161E1,6.3171644E0,0E0,0E0,0E0,0E0,0E0,4.567444E0,2.8485203E0,3.6696274E1,0E0,0E0,0E0,0E0,0E0,0E0,0E0,0E0,0E0,0E0,0E0,0E0,0E0,0E0,0E0,0E0,0E0,0E0],"parents":[2147483647,0,0,1,1,2,2,3,3,4,4,5,5,6,6,7,7,8,8,9,9,10,10,11,11,12,12,13,13,14,14,17,17,18,18,19,19,20,20,21,21,22,22,28,28,29,29,30,30],"right_children":[2,4,6,8,10,12,14,16,18,20,22,24,26,28,30,-1,-1,32,34,36,38,40,42,-1,-1,-1,-1,-1,44,46,48,-1,-1,-1,-1,-1,-1,-1,-1,-1,-1,-1,-1,-1,-1,-1,-1,-1,-1],"split_conditions":[-3.4954205E0,-1.7586417E0,-3.5020895E0,-5.723537E-1,-1.2997124E0,2.7852147E0,2.122469E0,-4.2271366E0,4.507964E0,6.93563E-1,1.3936427E0,1.7566316E0,-2.626635E-1,-4.941561E0,3.6125845E-1,1.9859517E-2,-4.817164E-2,6.1400366E-1,4.023718E0,5.25554E0,-2.6209726E0,-7.9851794E-1,-3.7305622E0,-5.3104717E-2,1.9746287E-2,1.0105201E-2,2.617169E-1,1.7511044E-1,5.2831407E0,-2.914774E0,9.8290443E-1,2.5179812E-1,4.94781E-2,-4.6908516E-2,1.0283255E-1,-5.118978E-2,1.202266E-1,-4.1760534E-2,2.3112316E-1,1.459858E-1,-4.8866857E-2,2.248631E-1,-3.026267E-2,-5.5460114E-2,2.0587912E-2,4.8659317E-2,-4.801285E-2,-4.218549E-2,2.0562938E-1],"split_indices":[33,19,38,8,11,47,8,25,3,8,15,26,21,16,34,0,0,49,48,47,27,17,1,0,0,0,0,0,47,18,36,0,0,0,0,0,0,0,0,0,0,0,0,0,0,0,0,0,0],"split_type":[0,0,0,0,0,0,0,0,0,0,0,0,0,0,0,0,0,0,0,0,0,0,0,0,0,0,0,0,0,0,0,0,0,0,0,0,0,0,0,0,0,0,0,0,0,0,0,0,0],"sum_hessian":[3.3578916E3,2.4353067E2,3.114361E3,1.10170105E2,1.3336057E2,2.8292969E1,3.086068E3,6.5745244E0,1.0359558E2,3.3630245E1,9.9730316E1,1.5982312E1,1.2310657E1,2.962826E3,1.2324217E2,1.0460474E0,5.528477E0,9.520144E1,8.394139E0,1.0086486E1,2.3543758E1,9.658829E1,3.1420252E0,1.4933534E1,1.048779E0,1.3336381E0,1.0977018E1,2.245072E0,2.9605808E3,1.0020272E2,2.3039448E1,9.015119E1,5.0502505E0,4.6911063E0,3.7030327E0,9.083651E0,1.0028361E0,2.6583498E0,2.088541E1,2.2201142E0,9.436817E1,2.0275645E0,1.1144607E0,2.953131E3,7.4495945E0,2.3766356E0,9.782609E1,9.794267E0,1.3245181E1],"tree_param":{"num_deleted":"0","num_feature":"50","num_nodes":"49","size_leaf_vector":"0"}},{"base_weights":[-5.3165627E-1,-5.4210633E-1,-1.1524254E-1,-5.4965544E-1,-2.4084388E-1,-2.945501E-1,1.4908632E0,6.3844025E-1,-5.5027914E-1,-3.3840752E-1,1.1589379E0,-3.7813407E-1,1.0903952E0,-3.7650195E-1,2.104548E0,-5.5089056E-1,5.6645465E-3,6.677095E-1,-3.9570826E-1,-3.7525997E-1,2.092386E0,1.0595664E0,-4.173432E-1,-3.537534E-1,2.0483575E0,6.1682093E-1,2.3109074E0,1.9278572E-1,-5.512015E-1,-4.00973E-1,6.5842843E-1,-3.8625655E-1,1.7698674E0,-1.4588309E-2,-4.8899212E-1,4.5447823E-1,-4.5577824E-1],"categories":[],"categories_nodes":[],"categories_segments":[],"categories_sizes":[],"default_left":[1,1,1,1,1,1,1,0,1,1,1,1,1,0,1,1,1,1,1,0,0,0,1,0,0,0,0,0,0,0,0,0,0,0,0,0,0],"id":15,"left_children":[1,3,5,7,9,11,13,-1,15,17,19,21,23,-1,25,27,29,31,33,-1,-1,-1,35,-1,-1,-1,-1,-1,-1,-1,-1,-1,-1,-1,-1,-1,-1],"loss_changes":[1.439563E1,7.2383423E0,2.4229362E1,2.6936646E0,1.1455093E1,9.111326E0,1.04887905E1,0E0,1.0770874E0,4.6746807E0,8.66774E0,4.479085E0,6.9980197E0,0E0,5.763149E-1,8.3618164E-1,1.4481114E0,5.9044094E0,2.5884762E0,0E0,0E0,0E0,2.567112E0,0E0,0E0,0E0,0E0,0E0,0E0,0E0,0E0,0E0,0E0,0E0,0E0,0E0,0E0],"parents":[2147483647,0,0,1,1,2,2,3,3,4,4,5,5,6,6,8,8,9,9,10,10,11,11,12,12,14,14,15,15,16,16,17,17,18,18,22,22],"right_children":[2,4,6,8,10,12,14,-1,16,18,20,22,24,-1,26,28,30,32,34,-1,-1,-1,36,-1,-1,-1,-1,-1,-1,-1,-1,-1,-1,-1,-1,-1,-1],"split_conditions":[5.161029E0,4.517728E0,2.7414765E0,-6.390987E0,2.164482E0,2.6745355E0,-8.682655E-1,6.3844025E-2,2.0013099E0,-7.444354E-1,2.2526169E-1,5.185892E0,-1.683536E0,-3.7650194E-2,-4.7613704E-1,-5.611813E0,2.4637094E0,7.855067E-1,1.2669435E0,-3.7525997E-2,2.092386E-1,1.0595664E-1,-5.1413345E-1,-3.5375338E-2,2.0483576E-1,6.1682094E-2,2.3109074E-1,1.9278573E-2,-5.512015E-2,-4.00973E-2,6.5842845E-2,-3.8625654E-2,1.7698674E-1,-1.458831E-3,-4.8899215E-2,4.5447823E-2,-4.5577824E-2],"split_indices":[3,47,29,44,0,18,27,0,37,12,43,3,23,0,14,11,9,21,36,0,0,0,28,0,0,0,0,0,0,0,0,0,0,0,0,0,0],"split_type":[0,0,0,0,0,0,0,0,0,0,0,0,0,0,0,0,0,0,0,0,0,0,0,0,0,0,0,0,0,0,0,0,0,0,0,0,0],"sum_hessian":[3.32153E3,3.2399211E3,8.160873E1,3.1599146E3,8.0006645E1,7.414742E1,7.4613E0,1.1214033E0,3.1587932E3,7.550243E1,4.5042143E0,7.0612785E1,3.5346432E0,1.9411412E0,5.520159E0,3.1553323E3,3.4609218E0,3.4943354E0,7.20081E1,1.9300328E0,2.5741813E0,1.183761E0,6.942902E1,1.6611489E0,1.8734944E0,1.1583337E0,4.361825E0,1.0601563E0,3.1542722E3,2.3701644E0,1.0907574E0,2.1182504E0,1.3760848E0,1.4386617E1,5.7621483E1,2.4745383E0,6.695448E1],"tree_param":{"num_deleted":"0","num_feature":"50","num_nodes":"37","size_leaf_vector":"0"}},{"base_weights":[1.7120337E0,1.8821483E0,8.373961E-2,3.2584983E-1,1.9495153E0,1.2444563E0,-2.3481908E-1,1.1358345E0,-2.0451462E-1,2.023974E0,1.2978148E0,1.8121809E0,-7.2229534E-2,1.2436779E0,-3.975207E-1,1.6231551E0,1.2227966E-1,1.0922835E0,-3.4903124E-1,2.0377018E0,4.4061814E-2,3.0499813E-1,1.8287832E0,1.9802756E0,3.697952E-2,7.433928E-1,-3.821281E-1,-1.3115586E-1,1.8332871E0,-4.19178E-1,1.813181E0,4.8159167E-1,1.9317628E0,-2.6818195E-1,1.4537742E0,1.9248307E0,-4.6137652E-1,1.1412666E0,-4.1677424E-1,2.0680268E0,1.6513263E0,-3.894014E-1,1.4867271E0,1.4315367E0,-1.4222859E-1,2.0322256E0,1.0684178E0,2.099169E0,1.04880586E-1,1.3615993E0,-4.728185E-1,1.7831305E0,-1.5264206E-1,5.2960265E-1,-5.3924066E-1,1.1400443E0,-4.278446E-1,-7.086042E-2,1.9917282E0,4.212116E-1,-4.5774427E-1],"categories":[],"categories_nodes":[],"categories_segments":[],"categories_sizes":[],"default_left":[1,1,1,1,1,1,1,1,1,1,1,1,1,1,1,1,1,1,1,1,1,1,1,1,1,1,1,1,1,1,0,0,0,0,0,0,0,0,0,0,0,0,0,0,0,0,0,0,0,0,0,0,0,0,0,0,0,0,0,0,0],"id":16,"left_children":[1,3,5,7,9,11,13,15,17,19,21,23,25,27,29,31,33,35,37,39,41,43,45,47,49,51,53,55,57,59,-1,-1,-1,-1,-1,-1,-1,-1,-1,-1,-1,-1,-1,-1,-1,-1,-1,-1,-1,-1,-1,-1,-1,-1,-1,-1,-1,-1,-1,-1,-1],"loss_changes":[1.4367832E3,4.9179492E2,1.8211916E2,8.4463806E1,2.1582031E2,7.940901E1,9.351471E1,3.8198357E1,2.274616E1,1.09671875E2,2.442456E2,2.2050919E1,8.603293E0,3.1511765E1,1.7474941E1,1.7535461E1,1.4074768E1,1.6678814E1,1.1392135E1,4.357617E1,1.8607224E1,8.233469E1,4.4602356E1,1.4877197E1,5.6627393E0,9.031328E0,3.7967384E0,5.206616E0,8.306641E0,1.1424412E1,0E0,0E0,0E0,0E0,0E0,0E0,0E0,0E0,0E0,0E0,0E0,0E0,0E0,0E0,0E0,0E0,0E0,0E0,0E0,0E0,0E0,0E0,0E0,0E0,0E0,0E0,0E0,0E0,0E0,0E0,0E0],"parents":[2147483647,0,0,1,1,2,2,3,3,4,4,5,5,6,6,7,7,8,8,9,9,10,10,11,11,12,12,13,13,14,14,15,15,16,16,17,17,18,18,19,19,20,20,21,21,22,22,23,23,24,24,25,25,26,26,27,27,28,28,29,29],"right_children":[2,4,6,8,10,12,14,16,18,20,22,24,26,28,30,32,34,36,38,40,42,44,46,48,50,52,54,56,58,60,-1,-1,-1,-1,-1,-1,-1,-1,-1,-1,-1,-1,-1,-1,-1,-1,-1,-1,-1,-1,-1,-1,-1,-1,-1,-1,-1,-1,-1,-1,-1],"split_conditions":[1.7587365E0,-3.1547728E0,-1.0162643E0,2.661251E0,3.9340782E-1,2.6662526E0,6.5799296E-1,2.6770096E0,-2.3762107E0,4.6806607E0,-9.9167335E-1,1.2330441E0,2.0892725E0,-2.4592261E0,1.5388138E0,-6.5903956E-1,-1.165462E0,-3.0045733E-1,-1.8298392E0,2.5917463E0,-1.2236046E0,-1.3592792E0,2.601413E-1,-3.9604813E-1,-9.7130895E-1,-1.0312083E0,2.8022046E0,-2.9715815E0,-1.3893073E0,-2.7965474E0,1.813181E-1,4.8159167E-2,1.9317628E-1,-2.6818195E-2,1.4537743E-1,1.9248307E-1,-4.6137653E-2,1.1412666E-1,-4.1677427E-2,2.0680268E-1,1.6513263E-1,-3.8940143E-2,1.4867271E-1,1.4315367E-1,-1.4222859E-2,2.0322256E-1,1.0684178E-1,2.099169E-1,1.0488058E-2,1.3615994E-1,-4.728185E-2,1.7831306E-1,-1.5264206E-2,5.2960265E-2,-5.3924065E-2,1.1400443E-1,-4.2784464E-2,-7.0860423E-3,1.9917282E-1,4.212116E-2,-4.5774426E-2],"split_indices":[13,33,8,28,0,3,42,47,6,42,34,6,13,23,33,34,41,15,7,42,10,39,13,15,11,26,3,43,5,41,0,0,0,0,0,0,0,0,0,0,0,0,0,0,0,0,0,0,0,0,0,0,0,0,0,0,0,0,0,0,0],"split_type":[0,0,0,0,0,0,0,0,0,0,0,0,0,0,0,0,0,0,0,0,0,0,0,0,0,0,0,0,0,0,0,0,0,0,0,0,0,0,0,0,0,0,0,0,0,0,0,0,0,0,0,0,0,0,0,0,0,0,0,0,0],"sum_hessian":[5.1865757E3,4.6958276E3,4.9074792E2,1.9507555E2,4.5007524E3,1.0505557E2,3.8569235E2,7.673797E1,1.1833758E2,4.0373657E3,4.6338666E2,7.3142075E1,3.1913498E1,3.7577286E1,3.4811505E2,5.141568E1,2.532229E1,1.1207808E1,1.0712977E2,4.0095361E3,2.7829473E1,1.6201733E2,3.0136932E2,6.670976E1,6.4323053E0,8.401846E0,2.3511652E1,1.1511849E1,2.6065437E1,3.455403E2,2.5747287E0,1.1486554E1,3.9929127E1,2.0197845E1,5.124445E0,7.1418576E0,4.0659504E0,3.9689388E0,1.0316083E2,3.7137112E3,2.9582486E2,2.1961117E1,5.8683553E0,4.541603E1,1.166013E2,2.3643611E2,6.493322E1,6.262053E1,4.0892386E0,1.32324E0,5.109065E0,3.4308014E0,4.9710445E0,3.107551E0,2.04041E1,1.6404738E0,9.871376E0,2.0447192E0,2.4020718E1,1.472605E1,3.3081427E2],"tree_param":{"num_deleted":"0","num_feature":"50","num_nodes":"61","size_leaf_vector":"0"}},{"base_weights":[-5.2560794E-1,1.8240272E-1,-5.438173E-1,1.2408118E0,-2.5909695E-1,-5.450948E-1,5.1369816E-1,-3.419739E-1,1.804788E0,-5.2590144E-1,5.28386E-1,-1.1252734E-1,-5.4634005E-1,-3.781272E-1,1.5131406E0,-4.704453E-1,2.128424E-1,5.878081E-3,2.0004852E0,1.7783068E-1,-5.4853684E-1,1.4556093E0,-4.927449E-1,1.1990201E0,-3.9123663E-1,-5.472875E-1,-7.25153E-2,2.0891633E0,5.391359E-1,-5.550996E-2,1.9717759E0,-4.940998E-1,2.1670961E-1,-5.551469E-1,-4.9833634E-1,1.1257491E0,-4.7108167E-1],"categories":[],"categories_nodes":[],"categories_segments":[],"categories_sizes":[],"default_left":[1,1,1,1,1,1,1,1,1,1,1,1,1,0,0,0,0,0,1,0,0,1,0,0,1,1,1,0,0,0,0,0,0,0,0,0,0],"id":17,"left_children":[1,3,5,7,9,11,13,15,17,19,21,23,25,-1,-1,-1,-1,-1,27,-1,-1,29,-1,-1,31,33,35,-1,-1,-1,-1,-1,-1,-1,-1,-1,-1],"loss_changes":[4.0623108E1,3.7500202E1,4.42041E0,2.1676804E1,1.2247652E1,1.5875244E0,4.327017E0,6.018281E-1,6.16782E0,7.8337383E-1,1.4840133E1,4.141712E0,1.3306274E0,0E0,0E0,0E0,0E0,0E0,9.2485046E-1,0E0,0E0,6.4043274E0,0E0,0E0,6.7240715E-1,8.953247E-1,3.9900856E0,0E0,0E0,0E0,0E0,0E0,0E0,0E0,0E0,0E0,0E0],"parents":[2147483647,0,0,1,1,2,2,3,3,4,4,5,5,6,6,7,7,8,8,9,9,10,10,11,11,12,12,18,18,21,21,24,24,25,25,26,26],"right_children":[2,4,6,8,10,12,14,16,18,20,22,24,26,-1,-1,-1,-1,-1,28,-1,-1,30,-1,-1,32,34,36,-1,-1,-1,-1,-1,-1,-1,-1,-1,-1],"split_conditions":[-3.1700733E0,-2.5668886E0,5.1205845E0,-8.02687E-1,-2.9179013E0,-5.7576537E0,-1.9031022E0,2.3349261E0,1.6559968E0,-1.2958574E0,-8.1766874E-1,3.007789E-1,1.8976109E0,-3.781272E-2,1.5131406E-1,-4.704453E-2,2.1284241E-2,5.8780814E-4,6.7019033E0,1.7783068E-2,-5.4853685E-2,2.0733955E0,-4.927449E-2,1.19902015E-1,-2.0489492E-1,6.742735E-1,-1.2663107E0,2.0891634E-1,5.391359E-2,-5.550996E-3,1.9717759E-1,-4.940998E-2,2.1670962E-2,-5.551469E-2,-4.9833637E-2,1.1257491E-1,-4.710817E-2],"split_indices":[45,40,31,15,1,39,23,31,7,36,40,12,49,0,0,0,0,0,3,0,0,12,0,0,33,31,14,0,0,0,0,0,0,0,0,0,0],"split_type":[0,0,0,0,0,0,0,0,0,0,0,0,0,0,0,0,0,0,0,0,0,0,0,0,0,0,0,0,0,0,0,0,0,0,0,0,0],"sum_hessian":[3.142241E3,7.856287E1,3.063678E3,2.2592152E1,5.5970715E1,3.0604653E3,3.2126544E0,6.0386E0,1.655355E1,4.205453E1,1.3916183E1,9.047072E0,3.0514182E3,2.0262485E0,1.1864059E0,5.0267034E0,1.0118964E0,1.7251803E0,1.4828371E1,1.0968635E0,4.095767E1,7.070463E0,6.845721E0,1.0068765E0,8.040195E0,3.045174E3,6.2442484E0,1.3574994E1,1.253377E0,2.0274365E0,5.0430264E0,7.036842E0,1.0033541E0,2.6149846E3,4.301895E2,1.103163E0,5.1410856E0],"tree_param":{"num_deleted":"0","num_feature":"50","num_nodes":"37","size_leaf_vector":"0"}},{"base_weights":[-1.05169624E-1,-3.8037845E-1,1.2538455E0,-5.008145E-1,-5.3595725E-2,-7.716577E-2,1.795395E0,-2.0683517E-1,-5.2893466E-1,-4.891819E-1,6.2853193E-1,-4.2840257E-1,8.679157E-1,1.9183816E-1,1.9896435E0,-3.419444E-1,1.2929258E0,-5.4779977E-1,-4.250078E-1,-5.150811E-1,3.1908956E-1,1.3369135E0,-3.279407E-1,2.031398E-2,-5.362258E-1,-4.1218466E-1,1.5412524E0,-3.6794543E-1,1.0735762E0,4.699867E-1,2.0520465E0,-4.7148898E-1,2.1979377E-1,-1.987264E-1,2.2649715E0,-5.490347E-1,4.334463E-1,2.010144E-2,-5.1158667E-1,-5.256127E-1,3.614649E-1,1.6159894E0,-3.349155E-1,-3.4098032E-1,1.871419E0,-4.5040154E-1,9.0297514E-1,-4.3090045E-1,1.28772E0,3.4231216E-1,-5.562418E-1,-5.300909E-1,7.0167947E-1,-9.5104374E-2,1.9807764E0,1.034706E0,-4.6922424E-1,-1.8870758E-2,1.8148777E0,1.556083E0,-4.0796408E-1,2.075144E0,-4.2487827E-1],"categories":[],"categories_nodes":[],"categories_segments":[],"categories_sizes":[],"default_left":[1,1,1,1,1,1,1,1,1,1,1,1,1,1,1,1,1,1,1,1,1,1,1,1,1,1,1,1,1,1,1,0,0,0,0,0,0,0,0,0,0,0,0,0,0,0,0,0,0,0,0,0,0,0,0,0,0,0,0,0,0,0,0],"id":18,"left_children":[1,3,5,7,9,11,13,15,17,19,21,23,25,27,29,31,33,35,37,39,41,43,45,47,49,51,53,55,57,59,61,-1,-1,-1,-1,-1,-1,-1,-1,-1,-1,-1,-1,-1,-1,-1,-1,-1,-1,-1,-1,-1,-1,-1,-1,-1,-1,-1,-1,-1,-1,-1,-1],"loss_changes":[1.2684941E3,1.1096347E2,4.1184363E2,1.6924622E1,2.2629555E2,5.5522564E1,1.2609143E2,3.7226562E1,3.453125E0,9.89296E0,2.0156516E2,5.9036427E0,3.9721474E1,2.2594912E1,3.3369263E1,1.2279688E1,2.2506079E1,2.1619873E0,1.1313065E1,4.350502E0,1.3303387E1,1.5376248E2,1.956686E1,1.46001215E1,1.9178753E0,2.5283864E0,2.1712494E1,4.499518E0,1.43853855E1,1.5488941E1,2.0760864E1,0E0,0E0,0E0,0E0,0E0,0E0,0E0,0E0,0E0,0E0,0E0,0E0,0E0,0E0,0E0,0E0,0E0,0E0,0E0,0E0,0E0,0E0,0E0,0E0,0E0,0E0,0E0,0E0,0E0,0E0,0E0,0E0],"parents":[2147483647,0,0,1,1,2,2,3,3,4,4,5,5,6,6,7,7,8,8,9,9,10,10,11,11,12,12,13,13,14,14,15,15,16,16,17,17,18,18,19,19,20,20,21,21,22,22,23,23,24,24,25,25,26,26,27,27,28,28,29,29,30,30],"right_children":[2,4,6,8,10,12,14,16,18,20,22,24,26,28,30,32,34,36,38,40,42,44,46,48,50,52,54,56,58,60,62,-1,-1,-1,-1,-1,-1,-1,-1,-1,-1,-1,-1,-1,-1,-1,-1,-1,-1,-1,-1,-1,-1,-1,-1,-1,-1,-1,-1,-1,-1,-1,-1],"split_conditions":[2.647675E0,-3.5127282E-1,2.8870609E-3,1.0291674E0,-5.17871E-1,2.4985038E-1,-1.5905898E0,1.2699149E0,-4.6713594E-1,1.846147E0,-9.688685E-2,1.6834261E0,-3.8968498E-1,8.8925606E-1,-1.2801092E0,5.141282E-1,7.591273E-2,2.2378716E0,-9.078901E-1,6.861697E-1,-3.8090795E-1,-2.2710595E0,-8.112682E-1,-9.014542E-1,-5.6844125E0,1.4820442E0,-1.1691456E0,-3.6752984E-1,-1.5310841E0,1.4963617E0,-2.436326E-2,-4.71489E-2,2.1979377E-2,-1.9872641E-2,2.2649716E-1,-5.4903474E-2,4.3344628E-2,2.010144E-3,-5.1158667E-2,-5.2561272E-2,3.6146488E-2,1.6159895E-1,-3.349155E-2,-3.4098033E-2,1.871419E-1,-4.5040157E-2,9.029751E-2,-4.3090045E-2,1.28772E-1,3.4231216E-2,-5.5624183E-2,-5.3009093E-2,7.016795E-2,-9.510438E-3,1.9807765E-1,1.034706E-1,-4.6922427E-2,-1.8870758E-3,1.8148778E-1,1.556083E-1,-4.079641E-2,2.075144E-1,-4.2487826E-2],"split_indices":[30,0,44,28,10,10,39,4,41,44,34,28,0,13,0,13,44,37,18,39,18,26,37,41,26,39,39,28,37,28,23,0,0,0,0,0,0,0,0,0,0,0,0,0,0,0,0,0,0,0,0,0,0,0,0,0,0,0,0,0,0,0,0],"split_type":[0,0,0,0,0,0,0,0,0,0,0,0,0,0,0,0,0,0,0,0,0,0,0,0,0,0,0,0,0,0,0,0,0,0,0,0,0,0,0,0,0,0,0,0,0,0,0,0,0,0,0,0,0,0,0,0,0,0,0,0,0,0,0],"sum_hessian":[3.3893027E3,2.8191316E3,5.701712E2,2.05955E3,7.5958154E2,1.6514302E2,4.050282E2,1.8053368E2,1.8790164E3,4.6373633E2,2.9584518E2,1.2079618E2,4.4346848E1,4.397707E1,3.6105112E2,1.6632217E2,1.4211495E1,1.5867197E3,2.9229657E2,4.496898E2,1.4046546E1,1.6973703E2,1.2610816E2,2.3560118E1,9.723606E1,1.5419751E1,2.8927097E1,2.7255955E1,1.6721117E1,1.4577877E1,3.4647324E2,1.352844E2,3.1037788E1,5.9209948E0,8.290501E0,1.5851652E3,1.5545474E0,4.7721935E1,2.4457463E2,4.4474655E2,4.9432254E0,4.21575E0,9.830796E0,4.1095154E1,1.2864186E2,1.1527393E2,1.0834232E1,1.7861269E1,5.6988497E0,1.8073308E0,9.542873E1,1.4417687E1,1.0020639E0,6.2906184E0,2.2636478E1,1.2148322E0,2.6041122E1,7.153555E0,9.567562E0,6.1712E0,8.406677E0,3.4343292E2,3.040325E0],"tree_param":{"num_deleted":"0","num_feature":"50","num_nodes":"63","size_leaf_vector":"0"}},{"base_weights":[-5.561619E-1,-5.579864E-1,-4.4682196E-1,-5.586187E-1,-4.282282E-1,3.5954493E-1,-5.133903E-1,-5.304683E-1,6.080634E-1,1.1000904E0,-3.9063984E-1,-5.5008346E-1,-3.7086453E-2,-4.1387856E-1,6.3778466E-1],"categories":[],"categories_nodes":[],"categories_segments":[],"categories_sizes":[],"default_left":[1,1,1,0,1,1,1,0,0,0,0,0,1,0,0],"id":19,"left_children":[1,3,5,-1,7,9,11,-1,-1,-1,-1,-1,13,-1,-1],"loss_changes":[3.7469482E-1,1.2939453E-2,3.209921E0,0E0,2.355251E0,3.1441596E0,8.966961E-1,0E0,0E0,0E0,0E0,0E0,1.4910537E0,0E0,0E0],"parents":[2147483647,0,0,1,1,2,2,4,4,5,5,6,6,12,12],"right_children":[2,4,6,-1,8,10,12,-1,-1,-1,-1,-1,14,-1,-1],"split_conditions":[4.00975E-1,3.0742006E0,-1.3757752E0,-5.586187E-2,-1.166261E-1,-9.055504E-1,4.742055E-1,-5.304683E-2,6.080634E-2,1.1000904E-1,-3.9063986E-2,-5.5008348E-2,7.0978475E-1,-4.1387856E-2,6.377847E-2],"split_indices":[37,10,24,0,6,14,19,0,0,0,0,0,11,0,0],"split_type":[0,0,0,0,0,0,0,0,0,0,0,0,0,0,0],"sum_hessian":[3.1271628E3,3.0718027E3,5.5360256E1,3.0536174E3,1.81853E1,3.8860416E0,5.1474213E1,1.6996538E1,1.1887623E0,1.7208638E0,2.1651778E0,4.7648594E1,3.8256207E0,2.7031405E0,1.1224802E0],"tree_param":{"num_deleted":"0","num_feature":"50","num_nodes":"15","size_leaf_vector":"0"}},{"base_weights":[-1.3074982E-1,-4.6491253E-1,1.314666E0,-5.232036E-1,2.609188E-1,1.1003811E-1,1.8193431E0,1.814515E0,-5.2967423E-1,-3.7078512E-1,1.2430472E0,1.3541111E0,-3.0488598E-1,-4.892892E-2,1.9764918E0,2.0941281E0,1.5951647E-1,-5.4057413E-1,2.3122941E-1,-4.538656E-1,1.4547983E0,-2.6068282E-1,1.8639301E0,2.1711054E0,3.4026682E-1,-4.1656283E-1,2.017397E0,5.4200363E-1,-4.0902308E-1,2.0436466E0,6.5541416E-1,-5.4596114E-1,-1.11037925E-1,-3.6877242E-1,2.0586832E0,-4.776203E-1,1.123585E0,2.16424E0,-3.3958787E-1,-4.947363E-1,1.2520438E0,7.7326334E-1,2.3398888E0,2.2915714E0,-2.989654E-1,1.5036765E0,-1.7352799E-1,1.4716213E0,-4.5795637E-1,6.348039E-1,2.1745481E0,1.262606E0,-2.2842845E-1,-4.931401E-1,6.461369E-1,2.139028E0,1.6197186E0,-1.7380261E-1,1.9712737E0],"categories":[],"categories_nodes":[],"categories_segments":[],"categories_sizes":[],"default_left":[1,1,1,1,1,1,1,1,1,1,1,1,1,1,1,0,0,1,1,1,1,1,1,1,1,1,1,1,1,1,1,0,0,0,0,0,0,0,0,0,0,0,0,0,0,0,0,0,0,0,0,0,0,0,0,0,0,0,0],"id":20,"left_children":[1,3,5,7,9,11,13,15,17,19,21,23,25,27,29,-1,-1,31,33,35,37,39,41,43,45,47,49,51,53,55,57,-1,-1,-1,-1,-1,-1,-1,-1,-1,-1,-1,-1,-1,-1,-1,-1,-1,-1,-1,-1,-1,-1,-1,-1,-1,-1,-1,-1],"loss_changes":[1.6298944E3,1.1608801E2,3.8504053E2,3.9339355E1,1.27272354E2,9.75394E1,1.3119214E2,3.0113373E0,2.1115967E1,1.9643429E1,7.539881E1,3.8393005E1,3.764538E1,7.8013554E0,3.5202515E1,0E0,0E0,5.713684E0,4.0718987E1,5.0510635E0,7.973031E0,9.232045E0,2.7734406E1,8.414368E0,1.3571518E1,1.1321688E1,7.1559906E-2,8.014904E0,2.3336802E0,1.23654785E1,2.3689854E1,0E0,0E0,0E0,0E0,0E0,0E0,0E0,0E0,0E0,0E0,0E0,0E0,0E0,0E0,0E0,0E0,0E0,0E0,0E0,0E0,0E0,0E0,0E0,0E0,0E0,0E0,0E0,0E0],"parents":[2147483647,0,0,1,1,2,2,3,3,4,4,5,5,6,6,7,7,8,8,9,9,10,10,11,11,12,12,13,13,14,14,17,17,18,18,19,19,20,20,21,21,22,22,23,23,24,24,25,25,26,26,27,27,28,28,29,29,30,30],"right_children":[2,4,6,8,10,12,14,16,18,20,22,24,26,28,30,-1,-1,32,34,36,38,40,42,44,46,48,50,52,54,56,58,-1,-1,-1,-1,-1,-1,-1,-1,-1,-1,-1,-1,-1,-1,-1,-1,-1,-1,-1,-1,-1,-1,-1,-1,-1,-1,-1,-1],"split_conditions":[2.9648755E0,8.951061E-1,9.081801E-1,-5.914852E0,1.0159249E0,-2.2159014E0,6.324507E-1,-2.2285163E0,-7.930154E-1,5.119413E0,-2.5521985E-1,1.111706E0,7.350875E0,-1.8362944E0,-1.0615418E0,2.0941281E-1,1.5951646E-2,-1.3888991E0,-1.2827101E-1,3.0924362E-1,5.1487124E-1,-1.8869534E-2,-3.256454E0,-1.1795271E-1,-1.4527526E0,-4.615393E0,3.443906E0,-7.0840394E-1,-5.117889E-1,-9.1600895E-2,8.3118033E-1,-5.4596115E-2,-1.1103793E-2,-3.687724E-2,2.0586832E-1,-4.7762033E-2,1.123585E-1,2.1642399E-1,-3.395879E-2,-4.9473632E-2,1.2520438E-1,7.7326335E-2,2.3398888E-1,2.2915713E-1,-2.989654E-2,1.5036766E-1,-1.7352799E-2,1.4716212E-1,-4.5795638E-2,6.348039E-2,2.1745482E-1,1.2626061E-1,-2.2842845E-2,-4.931401E-2,6.461369E-2,2.1390282E-1,1.6197185E-1,-1.7380262E-2,1.9712737E-1],"split_indices":[42,6,4,44,4,5,13,6,2,28,38,17,48,23,10,0,0,1,26,2,14,26,1,15,35,10,28,27,39,29,38,0,0,0,0,0,0,0,0,0,0,0,0,0,0,0,0,0,0,0,0,0,0,0,0,0,0,0,0],"split_type":[0,0,0,0,0,0,0,0,0,0,0,0,0,0,0,0,0,0,0,0,0,0,0,0,0,0,0,0,0,0,0,0,0,0,0,0,0,0,0,0,0,0,0,0,0,0,0,0,0,0,0,0,0,0,0,0,0,0,0],"sum_hessian":[3.3722285E3,2.739555E3,6.326737E2,2.5361567E3,2.03398E2,1.8715831E2,4.455154E2,6.229212E0,2.5299277E3,1.24160545E2,7.923745E1,4.6243183E1,1.4091513E2,3.4620163E1,4.1089523E2,5.101906E0,1.127306E0,2.494484E3,3.544386E1,1.19474754E2,4.685791E0,2.3325367E1,5.5912086E1,2.497551E1,2.1267672E1,1.3523251E2,5.682606E0,1.2917208E1,2.1702955E1,3.90498E2,2.0397253E1,2.4633193E3,3.1164555E1,2.7283997E1,8.159861E0,1.1838916E2,1.0855935E0,3.2103908E0,1.4754004E0,2.078275E1,2.542617E0,1.7784126E1,3.812796E1,2.3882994E1,1.0925164E0,5.9249406E0,1.53427305E1,2.1598127E0,1.3307271E2,1.0943271E0,4.588279E0,6.3443584E0,6.5728493E0,2.0593859E1,1.1090966E0,3.154726E2,7.5025375E1,1.3044745E1,7.3525066E0],"tree_param":{"num_deleted":"0","num_feature":"50","num_nodes":"59","size_leaf_vector":"0"}},{"base_weights":[-5.586844E-1,-5.599406E-1,4.77207E-2,-5.60568E-1,-3.3363822E-1,-4.703758E-1,1.3484381E0,4.3588793E-1,-5.0421757E-1],"categories":[],"categories_nodes":[],"categories_segments":[],"categories_sizes":[],"default_left":[1,1,1,0,1,0,0,0,0],"id":21,"left_children":[1,3,5,-1,7,-1,-1,-1,-1],"loss_changes":[2.4085083E0,2.5610352E-1,5.611115E0,0E0,1.676514E0,0E0,0E0,0E0,0E0],"parents":[2147483647,0,0,1,1,2,2,4,4],"right_children":[2,4,6,-1,8,-1,-1,-1,-1],"split_conditions":[4.5253963E0,3.7267168E0,-3.6029677E0,-5.6056798E-2,-1.7945137E0,-4.7037583E-2,1.3484381E-1,4.3588795E-2,-5.0421756E-2],"split_indices":[31,31,1,0,13,0,0,0,0],"split_type":[0,0,0,0,0,0,0,0,0],"sum_hessian":[3.1257935E3,3.1194084E3,6.385165E0,3.1093108E3,1.0097618E1,5.0228543E0,1.362311E0,1.549971E0,8.547647E0],"tree_param":{"num_deleted":"0","num_feature":"50","num_nodes":"9","size_leaf_vector":"0"}},{"base_weights":[-4.0317214E-1,7.973778E-1,-5.232374E-1,1.5347172E0,-5.7299912E-2,7.029848E-1,-5.336781E-1,-4.1177252E-1,1.6574446E0,9.0632993E-1,-4.7520718E-1,-4.5125148E-1,1.9896879E0,1.4510899E0,-5.3603745E-1,-5.041158E-1,1.990243E-1,1.7935102E0,8.8776425E-2,-2.6526222E-1,1.51935E0,1.0504586E0,-5.055822E-1,2.1684462E-1,-5.192927E-1,6.1277246E-1,2.0761993E0,-5.498407E-1,-2.0775454E-1,1.8995842E0,-4.15048E-2,-4.9194863E-1,7.807199E-1,-4.52441E-1,1.1133351E0,1.8186107E0,-4.3804127E-1,-5.2603257E-1,7.004164E-1,7.0266914E-1,-5.505558E-1,-4.7104186E-1,7.465948E-1],"categories":[],"categories_nodes":[],"categories_segments":[],"categories_sizes":[],"default_left":[1,1,1,1,1,1,1,1,1,1,1,1,1,0,1,0,0,1,1,1,1,0,1,0,0,0,0,1,1,0,0,0,0,0,0,0,0,0,0,0,0,0,0],"id":22,"left_children":[1,3,5,7,9,11,13,15,17,19,21,23,25,-1,27,-1,-1,29,31,33,35,-1,37,-1,-1,-1,-1,39,41,-1,-1,-1,-1,-1,-1,-1,-1,-1,-1,-1,-1,-1,-1],"loss_changes":[4.631695E2,1.8427156E2,3.774701E1,3.8173676E1,5.5330772E1,3.814007E1,1.4334106E1,6.7052674E-1,3.1394135E1,3.0267761E1,4.9681263E0,7.5055003E-1,1.6225815E-1,0E0,1.299176E1,0E0,0E0,2.6546997E1,5.5481486E0,4.409213E0,1.6874397E1,0E0,2.700365E0,0E0,0E0,0E0,0E0,2.8726196E0,3.0079578E1,0E0,0E0,0E0,0E0,0E0,0E0,0E0,0E0,0E0,0E0,0E0,0E0,0E0,0E0],"parents":[2147483647,0,0,1,1,2,2,3,3,4,4,5,5,6,6,7,7,8,8,9,9,10,10,11,11,12,12,14,14,17,17,18,18,19,19,20,20,22,22,27,27,28,28],"right_children":[2,4,6,8,10,12,14,16,18,20,22,24,26,-1,28,-1,-1,30,32,34,36,-1,38,-1,-1,-1,-1,40,42,-1,-1,-1,-1,-1,-1,-1,-1,-1,-1,-1,-1,-1,-1],"split_conditions":[-3.2922149E0,-1.3927557E0,-3.5942962E0,-5.723537E-1,-1.1631695E0,3.4221392E0,-4.941561E0,1.2560332E0,4.509684E0,8.908236E-1,-6.1156976E-1,-1.5313175E0,1.3795352E0,1.4510898E-1,2.076879E0,-5.0411582E-2,1.990243E-2,7.243388E0,3.8525972E0,5.4833875E0,3.763371E0,1.05045855E-1,4.8402557E0,2.1684462E-2,-5.1929273E-2,6.1277248E-2,2.0761994E-1,-5.247723E0,3.7929535E-1,1.8995842E-1,-4.15048E-3,-4.9194865E-2,7.807199E-2,-4.52441E-2,1.1133351E-1,1.8186107E-1,-4.3804128E-2,-5.2603256E-2,7.004164E-2,7.026692E-2,-5.5055585E-2,-4.7104187E-2,7.465948E-2],"split_indices":[33,19,38,8,11,47,16,43,3,8,17,11,21,0,8,0,0,28,48,47,17,0,30,0,0,0,0,10,34,0,0,0,0,0,0,0,0,0,0,0,0,0,0],"split_type":[0,0,0,0,0,0,0,0,0,0,0,0,0,0,0,0,0,0,0,0,0,0,0,0,0,0,0,0,0,0,0,0,0,0,0,0,0,0,0,0,0,0,0],"sum_hessian":[3.2093386E3,2.912679E2,2.9180708E3,1.5594063E2,1.3532729E2,2.4076244E1,2.8939944E3,9.109309E0,1.4683131E2,4.0582214E1,9.474507E1,1.3033683E1,1.1042562E1,2.7069576E0,2.8912876E3,8.064706E0,1.0446035E0,1.3497989E2,1.1851427E1,1.4134985E1,2.6447227E1,1.1939287E0,9.355114E1,1.0025637E0,1.2031119E1,1.1306273E0,9.911935E0,2.773976E3,1.173115E2,1.2757043E2,7.4094615E0,6.600707E0,5.25072E0,1.3036736E1,1.0982497E0,2.3001488E1,3.4457395E0,9.254565E1,1.005494E0,1.0229204E0,2.7729531E3,9.234238E1,2.4969126E1],"tree_param":{"num_deleted":"0","num_feature":"50","num_nodes":"43","size_leaf_vector":"0"}},{"base_weights":[-5.2518386E-1,-5.3608793E-1,-1.0502584E-1,-5.4400384E-1,-2.2721404E-1,-2.820129E-1,1.2859237E0,6.2587863E-1,-5.446608E-1,-3.2569578E-1,1.0571034E0,-3.6671954E-1,9.9676746E-1,1.7606936E0,-3.7219173E-1,-2.7695477E-1,-5.4622585E-1,6.435856E-1,-3.8442773E-1,-3.6763117E-1,1.8167351E0,1.1809337E0,-4.0768117E-1,-3.460234E-1,1.7790962E0,5.2423793E-1,1.9420989E0,1.1239021E0,-5.2932936E-1,-5.468742E-1,1.363328E-2,-3.8106298E-1,1.6324948E0,-6.0504936E-3,-4.8065832E-1,4.4202584E-1,-4.4724834E-1],"categories":[],"categories_nodes":[],"categories_segments":[],"categories_sizes":[],"default_left":[1,1,1,1,1,1,1,0,1,1,1,1,1,1,0,1,1,1,1,0,0,0,1,0,0,0,0,0,0,0,0,0,0,0,0,0,0],"id":23,"left_children":[1,3,5,7,9,11,13,-1,15,17,19,21,23,25,-1,27,29,31,33,-1,-1,-1,35,-1,-1,-1,-1,-1,-1,-1,-1,-1,-1,-1,-1,-1,-1],"loss_changes":[1.4342773E1,7.365906E0,2.0240805E1,2.6358643E0,1.0242725E1,8.213616E0,7.9721117E0,0E0,1.0992432E0,4.428789E0,6.9549475E0,4.835493E0,5.626551E0,6.4170265E-1,0E0,7.4452877E0,1.0841675E0,5.25309E0,2.5415373E0,0E0,0E0,0E0,2.47227E0,0E0,0E0,0E0,0E0,0E0,0E0,0E0,0E0,0E0,0E0,0E0,0E0,0E0,0E0],"parents":[2147483647,0,0,1,1,2,2,3,3,4,4,5,5,6,6,8,8,9,9,10,10,11,11,12,12,13,13,15,15,16,16,17,17,18,18,22,22],"right_children":[2,4,6,8,10,12,14,-1,16,18,20,22,24,26,-1,28,30,32,34,-1,-1,-1,36,-1,-1,-1,-1,-1,-1,-1,-1,-1,-1,-1,-1,-1,-1],"split_conditions":[5.161029E0,4.517728E0,2.7414765E0,-4.274394E0,2.164482E0,2.6745355E0,-9.436371E-1,6.2587865E-2,-3.6455445E0,-7.444354E-1,2.2526169E-1,5.1811914E0,-1.683536E0,-4.035867E0,-3.7219174E-2,-3.7008872E0,2.0013099E0,4.6692044E-1,1.2669435E0,-3.6763117E-2,1.8167351E-1,1.1809337E-1,-5.1413345E-1,-3.460234E-2,1.7790963E-1,5.2423794E-2,1.9420989E-1,1.1239021E-1,-5.2932937E-2,-5.468742E-2,1.3633281E-3,-3.81063E-2,1.6324948E-1,-6.0504937E-4,-4.8065834E-2,4.4202585E-2,-4.4724833E-2],"split_indices":[3,47,29,7,0,18,10,0,45,12,43,3,23,33,0,10,37,16,36,0,0,0,28,0,0,0,0,0,0,0,0,0,0,0,0,0,0],"split_type":[0,0,0,0,0,0,0,0,0,0,0,0,0,0,0,0,0,0,0,0,0,0,0,0,0,0,0,0,0,0,0,0,0,0,0,0,0],"sum_hessian":[3.1419214E3,3.062175E3,7.974641E1,2.9849153E3,7.7259705E1,7.145197E1,8.294434E0,1.1412002E0,2.983774E3,7.2450584E1,4.8091216E0,6.768194E1,3.770036E0,6.4000397E0,1.8943944E0,1.8376482E1,2.9653975E3,3.5702927E0,6.8880295E1,1.8518697E0,2.9572518E0,1.0275553E0,6.665438E1,1.5931871E0,2.176849E0,1.3165215E0,5.083518E0,2.2781017E0,1.609838E1,2.9619907E3,3.4068723E0,2.0553377E0,1.5149549E0,1.4181549E1,5.4698742E1,2.5131352E0,6.414124E1],"tree_param":{"num_deleted":"0","num_feature":"50","num_nodes":"37","size_leaf_vector":"0"}},{"base_weights":[1.4378041E0,1.5546559E0,-2.3938553E-2,2.8008193E-1,1.6056856E0,9.5774955E-1,-2.7709007E-1,9.75292E-1,-1.9954292E-1,1.0704811E0,1.6686026E0,1.4857864E0,-2.5749636E-1,1.1157234E0,-4.2971233E-1,1.3694781E0,2.2975711E-2,9.3174505E-1,-3.3405155E-1,1.562524E0,2.1187074E-1,1.266329E0,1.6948283E0,1.6179451E0,-1.2098104E-1,8.8807476E-1,-3.8568312E-1,-2.1598242E-1,1.6046468E0,-4.5417055E-1,1.5509982E0,1.4957894E0,-4.71177E-1,-2.7894714E-1,1.5167344E0,1.6113302E0,-4.6088412E-1,-4.0592384E-1,8.600495E-1,1.6408561E0,-1.8368417E-1,1.0460176E0,-2.1482056E-1,1.5131596E0,2.997867E-1,1.7261847E0,1.5407038E0,1.7568378E0,5.600621E-1,6.544466E-1,-4.3985778E-1,1.7646007E-1,1.176844E0,6.5847725E-1,-4.584295E-1,-5.05715E-1,1.0070028E0,3.2894276E-2,1.7062323E0,-4.6688423E-1,1.5622914E0],"categories":[],"categories_nodes":[],"categories_segments":[],"categories_sizes":[],"default_left":[1,1,1,1,1,1,1,1,1,1,1,1,1,1,1,1,1,1,1,1,1,1,1,1,1,1,1,1,1,1,0,0,0,0,0,0,0,0,0,0,0,0,0,0,0,0,0,0,0,0,0,0,0,0,0,0,0,0,0,0,0],"id":24,"left_children":[1,3,5,7,9,11,13,15,17,19,21,23,25,27,29,31,33,35,37,39,41,43,45,47,49,51,53,55,57,59,-1,-1,-1,-1,-1,-1,-1,-1,-1,-1,-1,-1,-1,-1,-1,-1,-1,-1,-1,-1,-1,-1,-1,-1,-1,-1,-1,-1,-1,-1,-1],"loss_changes":[9.8463184E2,3.4671875E2,1.0655017E2,6.911263E1,1.7102637E2,5.678862E1,7.2919785E1,3.1707718E1,1.9048908E1,2.2891547E2,4.628125E1,1.3239059E1,4.3775096E0,2.2439804E1,1.5617844E1,1.4603592E1,1.2044858E1,1.3376304E1,9.85733E0,4.7463623E1,7.099537E1,6.7516174E1,1.8152344E1,7.3655396E0,1.6722245E0,4.227929E-1,2.231942E0,4.0504103E0,3.925705E0,8.545063E0,0E0,0E0,0E0,0E0,0E0,0E0,0E0,0E0,0E0,0E0,0E0,0E0,0E0,0E0,0E0,0E0,0E0,0E0,0E0,0E0,0E0,0E0,0E0,0E0,0E0,0E0,0E0,0E0,0E0,0E0,0E0],"parents":[2147483647,0,0,1,1,2,2,3,3,4,4,5,5,6,6,7,7,8,8,9,9,10,10,11,11,12,12,13,13,14,14,15,15,16,16,17,17,18,18,19,19,20,20,21,21,22,22,23,23,24,24,25,25,26,26,27,27,28,28,29,29],"right_children":[2,4,6,8,10,12,14,16,18,20,22,24,26,28,30,32,34,36,38,40,42,44,46,48,50,52,54,56,58,60,-1,-1,-1,-1,-1,-1,-1,-1,-1,-1,-1,-1,-1,-1,-1,-1,-1,-1,-1,-1,-1,-1,-1,-1,-1,-1,-1,-1,-1,-1,-1],"split_conditions":[1.9316533E0,-3.1547728E0,-1.0162643E0,2.661251E0,-2.2607727E0,2.6662526E0,5.4840136E-1,1.0251245E0,-2.3762107E0,-1.6323284E0,-1.6056024E0,3.57377E-1,3.5030258E-1,-2.5126696E0,1.5388138E0,2.656004E0,-9.2411354E-2,-3.0045733E-1,1.916782E-1,9.778116E-1,3.795234E-1,9.3438387E-1,-5.2801913E-1,-2.9151168E-1,-1.0581669E0,-3.118013E0,-2.0152605E0,1.7458907E-1,-1.3893073E0,3.3376255E0,1.5509982E-1,1.4957894E-1,-4.7117703E-2,-2.7894715E-2,1.5167344E-1,1.6113302E-1,-4.6088412E-2,-4.0592384E-2,8.600495E-2,1.6408561E-1,-1.8368417E-2,1.0460176E-1,-2.1482056E-2,1.5131597E-1,2.9978668E-2,1.7261848E-1,1.5407038E-1,1.7568378E-1,5.600621E-2,6.544466E-2,-4.398578E-2,1.7646007E-2,1.176844E-1,6.5847725E-2,-4.584295E-2,-5.05715E-2,1.0070028E-1,3.2894276E-3,1.7062323E-1,-4.6688423E-2,1.5622914E-1],"split_indices":[13,33,8,28,23,3,42,8,6,26,5,49,42,23,33,9,19,15,23,16,13,13,15,10,18,1,16,46,5,40,0,0,0,0,0,0,0,0,0,0,0,0,0,0,0,0,0,0,0,0,0,0,0,0,0,0,0,0,0,0,0],"split_type":[0,0,0,0,0,0,0,0,0,0,0,0,0,0,0,0,0,0,0,0,0,0,0,0,0,0,0,0,0,0,0,0,0,0,0,0,0,0,0,0,0,0,0,0,0,0,0,0,0,0,0,0,0,0,0,0,0,0,0,0,0],"sum_hessian":[5.763363E3,5.3366846E3,4.266782E2,2.056879E2,5.1309966E3,8.690167E1,3.3977652E2,8.354991E1,1.2213798E2,5.4162976E2,4.589367E3,6.042414E1,2.6477533E1,3.2932045E1,3.0684448E2,5.8781017E1,2.4768896E1,1.2349041E1,1.0978894E2,3.4379288E2,1.9783687E2,2.839023E2,4.305465E3,5.5825466E1,4.5986753E0,2.0680392E0,2.4409494E1,8.993698E0,2.3938347E1,3.03863E2,2.9814615E0,5.518165E1,3.5993686E0,2.1280815E1,3.4880822E0,8.193619E0,4.155422E0,1.0417854E2,5.610392E0,3.2909073E2,1.4702168E1,6.646051E1,1.3137636E2,2.2569896E2,5.820336E1,3.56913E3,7.363349E2,4.876257E1,7.062897E0,1.0333878E0,3.5652874E0,1.0620078E0,1.0060315E0,1.0654168E0,2.3344076E1,7.745285E0,1.2484133E0,1.5336215E0,2.2404726E1,3.027228E2,1.1401836E0],"tree_param":{"num_deleted":"0","num_feature":"50","num_nodes":"61","size_leaf_vector":"0"}},{"base_weights":[-5.194863E-1,1.7738214E-1,-5.384125E-1,1.1017193E0,-2.484811E-1,-5.397528E-1,4.8845205E-1,-3.316409E-1,1.5478271E0,-5.2001894E-1,4.958138E-1,-9.982889E-2,-5.410612E-1,-3.846345E-1,1.5547665E0,-4.6382046E-1,2.1734735E-1,5.6151343E-3,1.6981676E0,1.796105E-1,-5.437605E-1,1.290654E0,-4.869307E-1,1.1045445E0,-3.8090485E-1,-5.4846334E-1,-4.6633533E-1,1.7834965E0,1.8225352E-1,1.6299022E0,-3.3038202E-1,-4.872463E-1,2.1724004E-1,-5.4883814E-1,1.9494769E-1,-4.771226E-1,1.0400712E0],"categories":[],"categories_nodes":[],"categories_segments":[],"categories_sizes":[],"default_left":[1,1,1,1,1,1,1,1,1,1,1,1,1,0,0,0,0,0,1,0,0,1,0,0,1,1,1,0,0,0,0,0,0,0,0,0,0],"id":25,"left_children":[1,3,5,7,9,11,13,15,17,19,21,23,25,-1,-1,-1,-1,-1,27,-1,-1,29,-1,-1,31,33,35,-1,-1,-1,-1,-1,-1,-1,-1,-1,-1],"loss_changes":[3.9263184E1,3.1479132E1,4.243164E0,1.6619062E1,1.139097E1,1.6084595E0,4.5957212E0,5.94399E-1,4.4851303E0,7.7618504E-1,1.2530261E1,3.7351098E0,1.336853E0,0E0,0E0,0E0,0E0,0E0,1.9593315E0,0E0,0E0,5.3216057E0,0E0,0E0,6.5807533E-1,8.352661E-1,4.8218613E0,0E0,0E0,0E0,0E0,0E0,0E0,0E0,0E0,0E0,0E0],"parents":[2147483647,0,0,1,1,2,2,3,3,4,4,5,5,6,6,7,7,8,8,9,9,10,10,11,11,12,12,18,18,21,21,24,24,25,25,26,26],"right_children":[2,4,6,8,10,12,14,16,18,20,22,24,26,-1,-1,-1,-1,-1,28,-1,-1,30,-1,-1,32,34,36,-1,-1,-1,-1,-1,-1,-1,-1,-1,-1],"split_conditions":[-3.1700733E0,-2.5668886E0,5.1205845E0,-8.02687E-1,-2.9179013E0,-5.7576537E0,2.3591645E0,-2.8220803E-1,1.6559968E0,-1.2958574E0,-8.1766874E-1,3.007789E-1,1.028899E0,-3.846345E-2,1.5547666E-1,-4.6382047E-2,2.1734735E-2,5.615134E-4,1.8829074E0,1.7961051E-2,-5.4376047E-2,-5.8670175E-1,-4.8693072E-2,1.10454455E-1,-2.0489492E-1,2.4579105E0,1.6412729E0,1.7834966E-1,1.8225353E-2,1.6299023E-1,-3.3038203E-2,-4.8724633E-2,2.1724004E-2,-5.4883815E-2,1.949477E-2,-4.7712263E-2,1.04007125E-1],"split_indices":[45,40,31,15,1,39,22,39,7,36,40,12,31,0,0,0,0,0,6,0,0,41,0,0,33,26,49,0,0,0,0,0,0,0,0,0,0],"split_type":[0,0,0,0,0,0,0,0,0,0,0,0,0,0,0,0,0,0,0,0,0,0,0,0,0,0,0,0,0,0,0,0,0,0,0,0,0],"sum_hessian":[2.968706E3,7.827365E1,2.8904324E3,2.418753E1,5.4086117E1,2.8871384E3,3.2940602E0,5.802021E0,1.838551E1,3.9849373E1,1.4236747E1,8.790794E0,2.8783477E3,2.1626182E0,1.131442E0,4.80118E0,1.0008411E0,1.7252297E0,1.6660278E1,1.0924084E0,3.875696E1,7.697622E0,6.5391245E0,1.109033E0,7.6817613E0,2.613156E3,2.6519156E2,1.5605358E1,1.0549213E0,6.360943E0,1.3366789E0,6.6796255E0,1.0021359E0,2.612101E3,1.055E0,2.6398447E2,1.2071044E0],"tree_param":{"num_deleted":"0","num_feature":"50","num_nodes":"37","size_leaf_vector":"0"}},{"base_weights":[-9.934312E-2,-3.7040424E-1,1.0932134E0,-5.0533694E-1,-7.721007E-2,-1.2048328E-1,1.4984792E0,-2.3036423E-1,-5.3203535E-1,-4.8258552E-1,5.3232616E-1,-4.321681E-1,6.976044E-1,1.6038999E-1,1.6452284E0,-3.5593036E-1,1.1324552E0,-5.466616E-1,-4.5014447E-1,-5.0747335E-1,3.0148393E-1,-1.2833676E-2,1.4742148E0,1.1101546E0,-4.5737174E-1,-4.6279633E-1,1.2925991E0,-3.643509E-1,9.1521424E-1,1.6796991E0,-4.850623E-1,-4.8252735E-1,1.9594486E-1,1.7272708E0,-4.5141926E-1,-5.473375E-1,9.88341E-2,-7.844988E-2,-5.195688E-1,8.264126E-2,-5.2624166E-1,1.3164977E0,-3.331912E-1,-3.252634E-1,8.349407E-1,-1.4839253E-1,1.7300168E0,-5.239379E-1,7.863043E-2,-5.243804E-1,1.8788642E-1,-1.694396E-1,1.6251827E0,9.6698433E-1,-4.6485263E-1,-1.371616E-1,1.5417634E0,4.8439297E-1,1.7215801E0],"categories":[],"categories_nodes":[],"categories_segments":[],"categories_sizes":[],"default_left":[1,1,1,1,1,1,1,1,1,1,1,1,1,1,1,1,1,1,1,1,1,1,1,0,1,1,1,1,1,1,0,0,0,0,0,0,0,0,0,0,0,0,0,0,0,0,0,0,0,0,0,0,0,0,0,0,0,0,0],"id":26,"left_children":[1,3,5,7,9,11,13,15,17,19,21,23,25,27,29,31,33,35,37,39,41,43,45,-1,47,49,51,53,55,57,-1,-1,-1,-1,-1,-1,-1,-1,-1,-1,-1,-1,-1,-1,-1,-1,-1,-1,-1,-1,-1,-1,-1,-1,-1,-1,-1,-1,-1],"loss_changes":[1.0713083E3,1.0677991E2,3.0208728E2,1.3450928E1,2.1081853E2,3.971541E1,9.010669E1,2.870618E1,1.7715759E0,1.015023E1,1.7503632E2,4.882683E0,3.0305174E1,1.8788126E1,3.1261963E1,1.0728308E1,1.4150713E1,6.755371E-1,6.6926155E0,5.547203E0,1.0996437E1,5.7716877E1,5.2125275E1,0E0,4.017521E0,7.1243453E-1,1.4233822E1,4.2227683E0,1.2997873E1,1.9603394E1,0E0,0E0,0E0,0E0,0E0,0E0,0E0,0E0,0E0,0E0,0E0,0E0,0E0,0E0,0E0,0E0,0E0,0E0,0E0,0E0,0E0,0E0,0E0,0E0,0E0,0E0,0E0,0E0,0E0],"parents":[2147483647,0,0,1,1,2,2,3,3,4,4,5,5,6,6,7,7,8,8,9,9,10,10,11,11,12,12,13,13,14,14,15,15,16,16,17,17,18,18,19,19,20,20,21,21,22,22,24,24,25,25,26,26,27,27,28,28,29,29],"right_children":[2,4,6,8,10,12,14,16,18,20,22,24,26,28,30,32,34,36,38,40,42,44,46,-1,48,50,52,54,56,58,-1,-1,-1,-1,-1,-1,-1,-1,-1,-1,-1,-1,-1,-1,-1,-1,-1,-1,-1,-1,-1,-1,-1,-1,-1,-1,-1,-1,-1],"split_conditions":[2.647675E0,-5.049433E-1,-9.447907E-2,1.0291674E0,-5.17871E-1,2.54456E-1,-1.57949E0,1.3082321E0,-4.627459E-1,1.8465781E0,6.900863E-1,-7.455075E-1,-1.6707732E-1,8.8925606E-1,-2.436326E-2,5.2992105E-1,2.3601665E0,2.2378716E0,-1.0244195E0,1.6167295E-1,-3.8090795E-1,-8.224583E-1,-2.3919425E0,1.1101546E-1,1.7455397E0,-5.769894E-1,-1.1691456E0,-3.6752984E-1,1.942353E0,-1.2801092E0,-4.850623E-2,-4.8252735E-2,1.9594487E-2,1.727271E-1,-4.5141928E-2,-5.473375E-2,9.88341E-3,-7.844988E-3,-5.195688E-2,8.264126E-3,-5.2624166E-2,1.3164978E-1,-3.331912E-2,-3.252634E-2,8.349407E-2,-1.4839253E-2,1.7300169E-1,-5.239379E-2,7.863044E-3,-5.243804E-2,1.8788641E-2,-1.694396E-2,1.6251828E-1,9.669843E-2,-4.6485264E-2,-1.371616E-2,1.5417634E-1,4.8439298E-2,1.7215802E-1],"split_indices":[30,0,44,28,10,10,39,4,41,44,13,28,0,13,23,13,48,37,18,28,18,41,26,0,9,37,39,28,3,0,0,0,0,0,0,0,0,0,0,0,0,0,0,0,0,0,0,0,0,0,0,0,0,0,0,0,0,0,0],"split_type":[0,0,0,0,0,0,0,0,0,0,0,0,0,0,0,0,0,0,0,0,0,0,0,0,0,0,0,0,0,0,0,0,0,0,0,0,0,0,0,0,0,0,0,0,0,0,0,0,0,0,0,0,0,0,0,0,0,0,0],"sum_hessian":[3.3118674E3,2.6990732E3,6.127941E2,1.8479111E3,8.511622E2,1.5357321E2,4.5922092E2,1.6439534E2,1.6835159E3,5.1131656E2,3.3984564E2,1.115466E2,4.202662E1,4.559244E1,4.1362848E2,1.5120279E2,1.3192547E1,1.4235792E3,2.5993655E2,4.9592767E2,1.5388895E1,2.1588118E2,1.23964455E2,1.1013734E0,1.1044522E2,1.4320313E1,2.7706306E1,2.7200455E1,1.8391987E1,4.072502E2,6.3782744E0,1.2309188E2,2.8110907E1,9.524962E0,3.6675844E0,1.4222423E3,1.3369911E0,4.124465E1,2.1869191E2,1.5181679E1,4.80746E2,5.5071754E0,9.88172E0,1.581972E2,5.768398E1,1.6938683E1,1.0702577E2,9.826428E1,1.2180943E1,1.3259475E1,1.0608388E0,5.225506E0,2.2480799E1,1.3040664E0,2.5896387E1,7.1550975E0,1.1236889E1,1.4211555E1,3.9303867E2],"tree_param":{"num_deleted":"0","num_feature":"50","num_nodes":"59","size_leaf_vector":"0"}},{"base_weights":[-5.514311E-1,-5.5334955E-1,-4.376813E-1,-5.540169E-1,-4.1791794E-1,3.476943E-1,-5.067955E-1,-5.2512896E-1,7.027848E-1,1.065323E0,-3.9079234E-1,-5.451582E-1,-3.2047324E-2,-4.1080457E-1,6.338285E-1],"categories":[],"categories_nodes":[],"categories_segments":[],"categories_sizes":[],"default_left":[1,1,1,0,1,1,1,0,0,0,0,0,1,0,0],"id":27,"left_children":[1,3,5,-1,7,9,11,-1,-1,-1,-1,-1,13,-1,-1],"loss_changes":[4.0118408E-1,3.0151367E-2,3.0900831E0,0E0,2.564017E0,3.0317025E0,8.88546E-1,0E0,0E0,0E0,0E0,0E0,1.4663647E0,0E0,0E0],"parents":[2147483647,0,0,1,1,2,2,4,4,5,5,6,6,12,12],"right_children":[2,4,6,-1,8,10,12,-1,-1,-1,-1,-1,14,-1,-1],"split_conditions":[4.00975E-1,3.0742006E0,-1.3757752E0,-5.540169E-2,-8.3931714E-2,2.5433617E0,4.742055E-1,-5.2512895E-2,7.027848E-2,1.065323E-1,-3.9079234E-2,-5.451582E-2,-3.40547E-1,-4.1080456E-2,6.338286E-2],"split_indices":[37,10,24,0,6,17,19,0,0,0,0,0,33,0,0],"split_type":[0,0,0,0,0,0,0,0,0,0,0,0,0,0,0],"sum_hessian":[2.9471567E3,2.894475E3,5.2681664E1,2.8772068E3,1.7268274E1,3.9350634E0,4.87466E1,1.6245584E1,1.0226907E0,1.7712574E0,2.163806E0,4.496484E1,3.7817597E0,2.6547635E0,1.1269963E0],"tree_param":{"num_deleted":"0","num_feature":"50","num_nodes":"15","size_leaf_vector":"0"}},{"base_weights":[-1.2452206E-1,-4.566577E-1,1.1349386E0,-5.16917E-1,2.4881445E-1,1.4744803E0,-5.5542424E-2,1.5500079E0,-5.2361965E-1,-3.5922894E-1,1.0879472E0,-6.393558E-2,1.6446775E0,9.2590773E-1,-3.3199638E-1,1.3447858E-1,1.7739775E0,-5.349321E-1,2.2094606E-1,-4.4442165E-1,1.2928898E0,-2.502904E-1,1.5636253E0,1.2318239E0,-3.0012384E-1,1.6785952E0,6.326454E-1,-1.615601E-1,1.3762609E0,-3.9944196E-1,1.5896162E0,-5.4059243E-1,-1.0114056E-1,-3.5742494E-1,1.7193882E0,-4.690232E-1,1.0431421E0,1.8567058E0,-3.332016E-1,-4.8732892E-1,1.113917E0,-4.683574E-1,1.7189076E0,-3.5634282E-1,1.6899486E0,-4.3652397E-1,1.1243334E0,-2.2213675E-1,1.6932111E0,-2.1207656E-1,1.4383427E0,-5.0345004E-1,1.1216581E0,1.6287229E0,-4.1404688E-1,7.7924573E-1,-4.6134236E-1],"categories":[],"categories_nodes":[],"categories_segments":[],"categories_sizes":[],"default_left":[1,1,1,1,1,1,1,1,1,1,1,1,1,1,1,0,0,1,1,1,1,1,1,1,1,1,1,1,1,1,0,0,0,0,0,0,0,0,0,0,0,0,0,0,0,0,0,0,0,0,0,0,0,0,0,0,0],"id":28,"left_children":[1,3,5,7,9,11,13,15,17,19,21,23,25,27,29,-1,-1,31,33,35,37,39,41,43,45,47,49,51,53,55,-1,-1,-1,-1,-1,-1,-1,-1,-1,-1,-1,-1,-1,-1,-1,-1,-1,-1,-1,-1,-1,-1,-1,-1,-1,-1,-1],"loss_changes":[1.3757203E3,1.1075043E2,2.775072E2,3.402948E1,1.0521928E2,1.3993872E2,4.189424E1,2.2985992E0,2.0254883E1,1.7447842E1,5.5500114E1,1.6945116E1,1.5445068E1,1.6848791E1,1.6229399E1,0E0,0E0,5.7283936E0,3.223626E1,4.688612E0,6.242858E0,8.162836E0,2.1001236E1,6.820155E0,9.547773E0,1.3285767E1,1.2010542E1,5.3191085E0,1.1572712E1,8.899084E0,0E0,0E0,0E0,0E0,0E0,0E0,0E0,0E0,0E0,0E0,0E0,0E0,0E0,0E0,0E0,0E0,0E0,0E0,0E0,0E0,0E0,0E0,0E0,0E0,0E0,0E0,0E0],"parents":[2147483647,0,0,1,1,2,2,3,3,4,4,5,5,6,6,7,7,8,8,9,9,10,10,11,11,12,12,13,13,14,14,17,17,18,18,19,19,20,20,21,21,22,22,23,23,24,24,25,25,26,26,27,27,28,28,29,29],"right_children":[2,4,6,8,10,12,14,16,18,20,22,24,26,28,30,-1,-1,32,34,36,38,40,42,44,46,48,50,52,54,56,-1,-1,-1,-1,-1,-1,-1,-1,-1,-1,-1,-1,-1,-1,-1,-1,-1,-1,-1,-1,-1,-1,-1,-1,-1,-1,-1],"split_conditions":[2.9648755E0,8.951061E-1,-1.4765596E0,-5.914852E0,1.0159249E0,6.2507504E-1,-2.1418862E0,4.0460954E0,-7.930154E-1,5.119413E0,-2.5521985E-1,-1.7734139E0,7.989459E-1,-1.110585E0,2.9229174E0,1.3447858E-2,1.7739776E-1,-1.3888991E0,-1.2827101E-1,3.0924362E-1,5.1487124E-1,-1.8869534E-2,1.8607831E0,-3.3121452E0,6.2682533E0,-1.3373942E0,-1.4209727E0,2.7373607E0,-2.4019636E-1,-3.4878435E0,1.5896162E-1,-5.4059245E-2,-1.0114056E-2,-3.5742495E-2,1.7193882E-1,-4.690232E-2,1.0431421E-1,1.8567058E-1,-3.332016E-2,-4.873289E-2,1.113917E-1,-4.6835743E-2,1.7189077E-1,-3.5634283E-2,1.6899486E-1,-4.3652397E-2,1.1243334E-1,-2.2213675E-2,1.693211E-1,-2.1207657E-2,1.4383428E-1,-5.0345004E-2,1.1216581E-1,1.628723E-1,-4.140469E-2,7.792457E-2,-4.6134237E-2],"split_indices":[42,6,10,44,4,13,5,7,2,28,38,34,27,49,6,0,0,1,26,2,14,26,28,33,42,4,41,6,15,27,0,0,0,0,0,0,0,0,0,0,0,0,0,0,0,0,0,0,0,0,0,0,0,0,0,0,0],"split_type":[0,0,0,0,0,0,0,0,0,0,0,0,0,0,0,0,0,0,0,0,0,0,0,0,0,0,0,0,0,0,0,0,0,0,0,0,0,0,0,0,0,0,0,0,0,0,0,0,0,0,0,0,0,0,0,0,0],"sum_hessian":[3.286505E3,2.6011787E3,6.853262E2,2.396725E3,2.0445367E2,5.330534E2,1.5227274E2,7.00277E0,2.3897222E3,1.1888234E2,8.557134E1,5.3160374E1,4.7989304E2,3.294921E1,1.19323524E2,1.1752709E0,5.827499E0,2.354235E3,3.548706E1,1.1374785E2,5.1344914E0,2.2564335E1,6.3007004E1,7.5460935E0,4.561428E1,4.63694E2,1.6199047E1,9.837018E0,2.3112192E1,1.1604274E2,3.2807848E0,2.3236685E3,3.0566795E1,2.6153688E1,9.333372E0,1.1257084E2,1.1770084E0,3.7072518E0,1.4272398E0,1.9771673E1,2.792662E0,4.3299694E0,5.8677036E1,1.7391624E0,5.806931E0,4.2261086E1,3.3531957E0,3.4300911E0,4.602639E2,8.267686E0,7.931361E0,8.247334E0,1.5896845E0,2.03349E1,2.7772913E0,5.211841E0,1.10830894E2],"tree_param":{"num_deleted":"0","num_feature":"50","num_nodes":"57","size_leaf_vector":"0"}},{"base_weights":[-5.540963E-1,-5.55416E-1,5.3130873E-2,-5.560772E-1,-3.2228267E-1,-4.6415836E-1,1.2382019E0,4.3714586E-1,-4.9843723E-1],"categories":[],"categories_nodes":[],"categories_segments":[],"categories_sizes":[],"default_left":[1,1,1,0,1,0,0,0,0],"id":29,"left_children":[1,3,5,-1,7,-1,-1,-1,-1],"loss_changes":[2.390442E0,2.7392578E-1,5.0508876E0,0E0,1.648331E0,0E0,0E0,0E0,0E0],"parents":[2147483647,0,0,1,1,2,2,4,4],"right_children":[2,4,6,-1,8,-1,-1,-1,-1],"split_conditions":[4.5253963E0,3.7267168E0,-3.6029677E0,-5.5607717E-2,-2.0838268E0,-4.6415836E-2,1.23820186E-1,4.3714587E-2,-4.9843725E-2],"split_indices":[31,31,1,0,0,0,0,0,0],"split_type":[0,0,0,0,0,0,0,0,0],"sum_hessian":[2.9451555E3,2.9388538E3,6.301774E0,2.929161E3,9.692746E0,4.810358E0,1.4914161E0,1.5460198E0,8.146727E0],"tree_param":{"num_deleted":"0","num_feature":"50","num_nodes":"9","size_leaf_vector":"0"}},{"base_weights":[-3.941817E-1,7.118945E-1,-5.1697034E-1,1.3004504E0,-5.383477E-2,6.53393E-1,-5.277928E-1,1.4484402E0,1.7149298E-1,8.033489E-1,-4.6709695E-1,-4.4209594E-1,1.7019961E0,1.3211915E0,-5.302661E-1,1.5640509E0,6.3666895E-2,-5.3198284E-1,8.789439E-1,-2.549175E-1,1.2893063E0,1.1566067E0,-4.9890158E-1,2.1564697E-1,-5.129966E-1,1.775096E0,5.4360056E-1,1.677444E0,1.8003823E-1,-5.447291E-1,-1.9681053E-1,-4.4474918E-1,1.6105566E0,9.3155634E-1,-4.10334E-1,-4.2104477E-1,1.3729532E0,7.1652305E-1,-5.148303E-1,1.5128286E0,-4.295703E-1,-5.2022296E-1,6.9516444E-1,6.634484E-1,-5.45483E-1,-4.6254918E-1,6.7506003E-1],"categories":[],"categories_nodes":[],"categories_segments":[],"categories_sizes":[],"default_left":[1,1,1,1,1,1,1,1,1,1,1,1,1,1,1,1,1,0,1,1,1,0,1,0,0,0,0,0,0,1,1,0,0,0,0,0,0,0,0,0,0,0,0,0,0,0,0],"id":30,"left_children":[1,3,5,7,9,11,13,15,17,19,21,23,25,27,29,31,33,-1,35,37,39,-1,41,-1,-1,-1,-1,-1,-1,43,45,-1,-1,-1,-1,-1,-1,-1,-1,-1,-1,-1,-1,-1,-1,-1,-1],"loss_changes":[4.1645767E2,1.38222E2,3.5279846E1,2.8716248E1,4.790772E1,3.0295387E1,1.3200867E1,2.4416992E1,1.1031239E1,2.2964506E1,5.2849464E0,7.342E-1,1.652031E-1,1.2989092E0,1.3061279E1,1.3916229E1,5.6653376E0,0E0,7.6167574E0,4.077016E0,1.2302494E1,0E0,2.65584E0,0E0,0E0,0E0,0E0,0E0,0E0,2.744934E0,2.6973251E1,0E0,0E0,0E0,0E0,0E0,0E0,0E0,0E0,0E0,0E0,0E0,0E0,0E0,0E0,0E0,0E0],"parents":[2147483647,0,0,1,1,2,2,3,3,4,4,5,5,6,6,7,7,8,8,9,9,10,10,11,11,12,12,13,13,14,14,15,15,16,16,18,18,19,19,20,20,22,22,29,29,30,30],"right_children":[2,4,6,8,10,12,14,16,18,20,22,24,26,28,30,32,34,-1,36,38,40,-1,42,-1,-1,-1,-1,-1,-1,44,46,-1,-1,-1,-1,-1,-1,-1,-1,-1,-1,-1,-1,-1,-1,-1,-1],"split_conditions":[-3.2922149E0,-1.3927557E0,-3.5942962E0,-1.4431977E0,-1.1631695E0,3.4221392E0,-4.941561E0,1.4244084E-1,7.03335E-1,8.908236E-1,-8.452749E-1,-1.5313175E0,1.627235E0,-9.3823576E-1,2.076879E0,-3.3043358E0,2.7520618E0,-5.3198285E-2,-1.5423543E0,-2.5600398E0,3.763371E0,1.1566067E-1,1.9663792E0,2.1564698E-2,-5.129966E-2,1.775096E-1,5.436006E-2,1.677444E-1,1.8003823E-2,-5.247723E0,3.7929535E-1,-4.447492E-2,1.6105567E-1,9.315564E-2,-4.10334E-2,-4.210448E-2,1.3729532E-1,7.165231E-2,-5.148303E-2,1.5128286E-1,-4.295703E-2,-5.2022297E-2,6.951644E-2,6.634484E-2,-5.45483E-2,-4.6254918E-2,6.750601E-2],"split_indices":[33,19,38,25,11,47,16,41,8,8,17,11,7,0,8,34,42,0,46,44,17,0,40,0,0,0,0,0,0,10,34,0,0,0,0,0,0,0,0,0,0,0,0,0,0,0,0],"split_type":[0,0,0,0,0,0,0,0,0,0,0,0,0,0,0,0,0,0,0,0,0,0,0,0,0,0,0,0,0,0,0,0,0,0,0,0,0,0,0,0,0,0,0,0,0,0,0],"sum_hessian":[3.062681E3,3.0554492E2,2.757136E3,1.7236395E2,1.3318097E2,2.4717844E1,2.7324182E3,1.5213794E2,2.0226027E1,4.301527E1,9.01657E1,1.2371538E1,1.2346307E1,2.9379122E0,2.7294802E3,1.402956E2,1.1842344E1,1.0265869E1,9.960157E0,1.3686249E1,2.9329021E1,1.0527782E0,8.911292E1,1.0051612E0,1.1366377E1,1.1112673E1,1.233634E0,1.8807979E0,1.0571142E0,2.6154082E3,1.1407204E2,2.980725E0,1.3731487E2,3.8421369E0,8.000208E0,2.783378E0,7.1767793E0,2.5180595E0,1.1168189E1,2.6060053E1,3.268969E0,8.810405E1,1.0088713E0,1.0827634E0,2.6143254E3,8.77853E1,2.628673E1],"tree_param":{"num_deleted":"0","num_feature":"50","num_nodes":"47","size_leaf_vector":"0"}},{"base_weights":[-5.189377E-1,-5.303003E-1,-9.597321E-2,-5.385964E-1,-2.1498853E-1,-2.6997653E-1,1.1279173E0,6.019163E-1,-5.392878E-1,-3.242154E-1,8.66263E-1,-3.5553014E-1,9.193171E-1,-3.717018E-1,1.5198941E0,-5.3996414E-1,2.0390453E-2,6.687041E-1,-3.8627756E-1,-1.5144496E-1,1.5391252E0,1.1083437E0,-3.9764097E-1,-3.3819437E-1,1.5747256E0,1.968485E-1,1.6822896E0,-5.415963E-1,-3.0857277E-1,-3.9602318E-1,6.8010855E-1,1.6797355E0,-3.7701786E-1,5.7284073E-3,-4.9056223E-1,-3.6182973E-1,2.1630943E-1,4.2400414E-1,-4.3838134E-1],"categories":[],"categories_nodes":[],"categories_segments":[],"categories_sizes":[],"default_left":[1,1,1,1,1,1,1,0,1,1,1,1,1,0,1,1,1,1,1,1,0,0,1,0,0,0,0,0,0,0,0,0,0,0,0,0,0,0,0],"id":31,"left_children":[1,3,5,7,9,11,13,-1,15,17,19,21,23,-1,25,27,29,31,33,35,-1,-1,37,-1,-1,-1,-1,-1,-1,-1,-1,-1,-1,-1,-1,-1,-1,-1,-1],"loss_changes":[1.4220764E1,7.4483643E0,1.7109016E1,2.5457764E0,9.232463E0,7.438397E0,6.452121E0,0E0,1.0769043E0,4.5453396E0,5.181725E0,4.504612E0,4.6282287E0,0E0,1.417017E0,8.949585E-1,1.4676739E0,5.347322E0,2.7054167E0,3.7124246E-1,0E0,0E0,2.3555584E0,0E0,0E0,0E0,0E0,0E0,0E0,0E0,0E0,0E0,0E0,0E0,0E0,0E0,0E0,0E0,0E0],"parents":[2147483647,0,0,1,1,2,2,3,3,4,4,5,5,6,6,8,8,9,9,10,10,11,11,12,12,14,14,15,15,16,16,17,17,18,18,19,19,22,22],"right_children":[2,4,6,8,10,12,14,-1,16,18,20,22,24,-1,26,28,30,32,34,36,-1,-1,38,-1,-1,-1,-1,-1,-1,-1,-1,-1,-1,-1,-1,-1,-1,-1,-1],"split_conditions":[5.161029E0,4.517728E0,2.7414765E0,-6.390987E0,2.0702853E0,2.6745355E0,-8.682655E-1,6.019163E-2,2.0013099E0,-7.444354E-1,3.330102E0,5.1811914E0,-1.683536E0,-3.7170183E-2,-5.98353E-1,3.7345705E0,-1.1615574E0,-3.2802997E0,1.2669435E0,4.954996E-1,1.5391253E-1,1.10834375E-1,-5.1413345E-1,-3.3819437E-2,1.5747257E-1,1.968485E-2,1.6822897E-1,-5.415963E-2,-3.0857278E-2,-3.960232E-2,6.801086E-2,1.6797356E-1,-3.7701786E-2,5.7284074E-4,-4.9056225E-2,-3.6182974E-2,2.1630943E-2,4.2400416E-2,-4.3838136E-2],"split_indices":[3,47,29,44,0,18,27,0,37,12,22,3,23,0,14,8,49,37,36,24,0,0,28,0,0,0,0,0,0,0,0,0,0,0,0,0,0,0,0],"split_type":[0,0,0,0,0,0,0,0,0,0,0,0,0,0,0,0,0,0,0,0,0,0,0,0,0,0,0,0,0,0,0,0,0,0,0,0,0,0,0],"sum_hessian":[2.9685654E3,2.8906567E3,7.790884E1,2.8158608E3,7.479572E1,6.88935E1,9.015335E0,1.1791352E0,2.814682E3,6.856909E1,6.22663E0,6.492415E1,3.9693587E0,1.8788774E0,7.136458E0,2.8113196E3,3.3620934E0,3.4587345E0,6.511035E1,2.7866821E0,3.4399478E0,1.1074326E0,6.381671E1,1.5258169E0,2.443542E0,1.0220354E0,6.114423E0,2.7902976E3,2.1022171E1,2.3061569E0,1.0559363E0,1.4502764E0,2.0084581E0,1.3880112E1,5.1230244E1,1.7828566E0,1.0038255E0,2.570373E0,6.1246338E1],"tree_param":{"num_deleted":"0","num_feature":"50","num_nodes":"39","size_leaf_vector":"0"}},{"base_weights":[1.2451047E0,1.3295349E0,-1.3816561E-1,2.6121643E-1,1.3701684E0,1.0886586E0,-3.011672E-1,-2.3992613E-1,8.282863E-1,9.1579115E-1,1.4230357E0,-1.782437E-1,1.3965645E0,7.80058E-1,-4.3650764E-1,9.385169E-1,-3.630591E-1,1.2422749E0,-3.569897E-2,1.3799436E0,2.4545236E-1,1.0787534E0,1.4454217E0,-4.9566153E-1,1.1900852E0,-3.040393E-2,1.4757067E0,1.2941029E0,-3.4761563E-1,-4.559844E-1,1.0726304E0,-3.9164823E-1,1.3137467E0,1.2005951E0,-3.9788574E-1,1.3946089E0,3.664462E-2,-3.8655907E-1,8.4275794E-1,1.4546386E0,1.5412498E-1,9.9435633E-1,-1.8675707E-1,1.2988117E0,2.5135583E-1,1.4760855E0,1.3105569E0,1.5303105E0,4.881624E-1,6.5515414E-2,1.4515485E0,2.8187278E-1,-5.030158E-1,-4.697331E-1,1.3865254E0,1.4307172E0,1.2886472E-1],"categories":[],"categories_nodes":[],"categories_segments":[],"categories_sizes":[],"default_left":[1,1,1,1,1,1,1,1,1,1,1,1,1,1,1,1,1,1,1,1,1,1,1,0,0,0,1,1,1,1,1,0,0,0,0,0,0,0,0,0,0,0,0,0,0,0,0,0,0,0,0,0,0,0,0,0,0],"id":32,"left_children":[1,3,5,7,9,11,13,15,17,19,21,23,25,27,29,31,33,35,37,39,41,43,45,-1,-1,-1,47,49,51,53,55,-1,-1,-1,-1,-1,-1,-1,-1,-1,-1,-1,-1,-1,-1,-1,-1,-1,-1,-1,-1,-1,-1,-1,-1,-1,-1],"loss_changes":[7.246367E2,2.5342676E2,7.186655E1,6.1426537E1,1.3398438E2,1.6700096E1,4.6664757E1,1.7049612E1,3.6278107E1,1.8316602E2,3.7307617E1,4.5564103E0,3.889183E0,2.107245E1,8.777687E0,6.090907E0,6.1944437E0,1.2532089E1,1.0739767E1,3.1664307E1,7.868322E1,5.6450775E1,1.7635742E1,0E0,0E0,0E0,9.9318695E-1,4.672806E0,1.3085804E0,7.721447E0,1.1306853E0,0E0,0E0,0E0,0E0,0E0,0E0,0E0,0E0,0E0,0E0,0E0,0E0,0E0,0E0,0E0,0E0,0E0,0E0,0E0,0E0,0E0,0E0,0E0,0E0,0E0,0E0],"parents":[2147483647,0,0,1,1,2,2,3,3,4,4,5,5,6,6,7,7,8,8,9,9,10,10,11,11,12,12,13,13,14,14,15,15,16,16,17,17,18,18,19,19,20,20,21,21,22,22,26,26,27,27,28,28,29,29,30,30],"right_children":[2,4,6,8,10,12,14,16,18,20,22,24,26,28,30,32,34,36,38,40,42,44,46,-1,-1,-1,48,50,52,54,56,-1,-1,-1,-1,-1,-1,-1,-1,-1,-1,-1,-1,-1,-1,